%YAML:1.0
---
opencv_ml_ann_mlp:
   format: 3
   layer_sizes: [ 256, 100, 100, 26 ]
   activation_function: SIGMOID_SYM
   f_param1: 2.
   f_param2: 1.
   min_val: -9.4999999999999996e-01
   max_val: 9.4999999999999996e-01
   min_val1: -9.7999999999999998e-01
   max_val1: 9.7999999999999998e-01
   training_params:
      train_method: BACKPROP
      dw_scale: 1.0000000000000000e-03
      moment_scale: 0.
      term_criteria:
         iterations: 20
   input_scale:
      - 2.7678841070947278e-02
      - -1.7595834680816483e-01
      - 1.9932898038593206e-02
      - -2.8067850257590499e-01
      - 1.5489516637938829e-02
      - -3.1074585488903900e-01
      - 2.3316390945489679e-02
      - -2.6480758288091849e-01
      - 2.5259736848241964e-02
      - -1.9387668152351947e-01
      - 3.5628618746836038e-02
      - -1.5905633369123232e-01
      - 3.5870678717370742e-02
      - -1.3055529494211884e-01
      - 5.1472557578702206e-02
      - -1.0461630209177786e-01
      - 1.
      - 0.
      - 1.
      - 0.
      - 1.
      - 0.
      - 1.
      - 0.
      - 1.
      - 0.
      - 1.
      - 0.
      - 1.
      - 0.
      - 1.
      - 0.
      - 1.4735311407172845e-02
      - -3.3173587434200164e-01
      - 1.2679287413557640e-02
      - -4.3084877295550089e-01
      - 1.0686840847367977e-02
      - -5.4457781525792337e-01
      - 1.0355823317742775e-02
      - -6.0484060280154150e-01
      - 1.0993276785592346e-02
      - -5.7175747022209022e-01
      - 1.0491671036717715e-02
      - -6.0017127271405657e-01
      - 1.1360997105531956e-02
      - -5.3824568105169579e-01
      - 1.2591505031209593e-02
      - -4.4573110180285130e-01
      - 1.5575294644614553e-02
      - -3.5069697519611015e-01
      - 2.0602990482719793e-02
      - -2.5646709581411586e-01
      - 2.8721007860701288e-02
      - -1.5936429361668344e-01
      - 3.9861514222779615e-02
      - -1.0366582107937167e-01
      - 6.8935248950936348e-02
      - -5.7073014553534966e-02
      - 1.
      - 0.
      - 1.
      - 0.
      - 1.
      - 0.
      - 9.4810464267906323e-03
      - -5.9053374886867360e-01
      - 8.6386771474028026e-03
      - -7.6474730876975583e-01
      - 8.3087416291117034e-03
      - -1.0511906982519343e+00
      - 8.5445886648779050e-03
      - -1.2082825152925074e+00
      - 8.9021466361471034e-03
      - -1.3577507804533970e+00
      - 9.2495708156608049e-03
      - -1.4743755818015170e+00
      - 8.8001255445641097e-03
      - -1.2706466987592697e+00
      - 8.6050923521771953e-03
      - -1.1176562157678458e+00
      - 8.7207332034471823e-03
      - -9.3170274932673047e-01
      - 9.2103186762438911e-03
      - -7.1045049061754018e-01
      - 1.0860440150790778e-02
      - -5.1174535035203428e-01
      - 1.4080133794319768e-02
      - -3.6987780042156249e-01
      - 2.0102054825939488e-02
      - -2.3430641826338558e-01
      - 3.6742148137720122e-02
      - -1.2990973805836756e-01
      - 3.3804785543247629e-01
      - -5.7073014553534959e-02
      - 4.1836590252494887e-01
      - -9.9158152221822296e-02
      - 8.3292637859751356e-03
      - -9.1089153280194957e-01
      - 8.6002188217910603e-03
      - -1.3250759226886193e+00
      - 9.4806577510577490e-03
      - -1.7504126093235388e+00
      - 1.0850343138728501e-02
      - -2.1981104236496867e+00
      - 1.0209231620277627e-02
      - -1.9711109335436019e+00
      - 9.6432761321663171e-03
      - -1.7723277013426582e+00
      - 8.7480956410081433e-03
      - -1.4138399507081278e+00
      - 8.5549563467355646e-03
      - -1.3091860793734873e+00
      - 8.2956452482235207e-03
      - -1.1496471486206907e+00
      - 8.3902470971949118e-03
      - -8.8999273672874990e-01
      - 8.9066263882822180e-03
      - -6.9515062255816962e-01
      - 9.8248024874850494e-03
      - -5.5238995024603443e-01
      - 1.1790020516753225e-02
      - -4.1743562901036990e-01
      - 1.6445495630097683e-02
      - -3.0119818457591241e-01
      - 3.1221014995172970e-02
      - -1.7485795735932913e-01
      - 4.1164025866540409e-02
      - -1.1774515191046137e-01
      - 8.2043289907315180e-03
      - -1.1054001443421315e+00
      - 8.6821640334760596e-03
      - -1.4721342028709536e+00
      - 1.0034184569754795e-02
      - -1.9755615334738013e+00
      - 1.1129709422119140e-02
      - -2.2674253468153629e+00
      - 9.9588480039334449e-03
      - -1.9112904687029539e+00
      - 8.6945033978050677e-03
      - -1.4049527081453188e+00
      - 8.1999685235359353e-03
      - -1.0623751427375907e+00
      - 8.5474521022217646e-03
      - -7.4976140729131624e-01
      - 9.3424516449499596e-03
      - -5.8484353950090961e-01
      - 9.9215260387560504e-03
      - -5.3073721757969050e-01
      - 1.0368094039093488e-02
      - -4.8262131246260825e-01
      - 1.1066517996552259e-02
      - -4.4869700240566435e-01
      - 1.1438212226923929e-02
      - -4.4293362737182373e-01
      - 1.2644750457058858e-02
      - -3.9050930632319436e-01
      - 1.6026700532191282e-02
      - -2.9399629223013224e-01
      - 1.9028115881345526e-02
      - -2.5403770293536626e-01
      - 8.3425148482247080e-03
      - -1.1973133972432628e+00
      - 8.7418859131583558e-03
      - -1.4497906897536650e+00
      - 1.0240416054559569e-02
      - -1.9934898240236449e+00
      - 1.0366129672868013e-02
      - -2.0204192545192847e+00
      - 9.0447050606079857e-03
      - -1.4709979412206986e+00
      - 8.4215022018699001e-03
      - -1.0305129756047879e+00
      - 8.9546820510806521e-03
      - -7.0712914560514162e-01
      - 1.0534718077422761e-02
      - -5.0241712285474982e-01
      - 1.2669560159436192e-02
      - -3.7646693045181828e-01
      - 1.4177570808401463e-02
      - -3.2323020200193203e-01
      - 1.3838241827218547e-02
      - -3.2771472690822107e-01
      - 1.1090461886349308e-02
      - -4.3285208550586046e-01
      - 1.0962772756070502e-02
      - -4.4096685608752423e-01
      - 1.0971111188614288e-02
      - -4.4354635233969192e-01
      - 1.2865892493892916e-02
      - -3.6617666753722505e-01
      - 1.6392841327583351e-02
      - -2.8378775960608577e-01
      - 8.5023825606759130e-03
      - -1.1643295183252877e+00
      - 8.9184251426502222e-03
      - -1.3824717208139359e+00
      - 9.5383076352649841e-03
      - -1.6548963747184748e+00
      - 9.1311937829383835e-03
      - -1.3957978392679287e+00
      - 8.5773581730558702e-03
      - -1.1151122596282570e+00
      - 8.9723403451816945e-03
      - -8.0183009091274715e-01
      - 9.9430523486049097e-03
      - -5.6242811044608676e-01
      - 1.1073887681911823e-02
      - -4.5848771337577782e-01
      - 1.2883579573908729e-02
      - -3.5739384376453304e-01
      - 1.3869745267290894e-02
      - -3.3165803212206957e-01
      - 1.1766659917227834e-02
      - -3.9429771755100157e-01
      - 9.9131962752665170e-03
      - -5.1159173634857558e-01
      - 9.8787993031032636e-03
      - -5.2614228496138293e-01
      - 1.0549956179391036e-02
      - -4.8454441595345976e-01
      - 1.3159237460274942e-02
      - -3.6858682327854519e-01
      - 1.5185707686603470e-02
      - -3.0958135897462075e-01
      - 8.5844604185806323e-03
      - -1.0696572141048295e+00
      - 8.9535526737769006e-03
      - -1.1642234773769193e+00
      - 9.1344950332360834e-03
      - -1.1470315906020738e+00
      - 9.0208976695579160e-03
      - -1.0407714243108459e+00
      - 8.8965438111754599e-03
      - -9.0025513299644666e-01
      - 8.8729848982883885e-03
      - -7.8586413974158742e-01
      - 1.0040227015874264e-02
      - -5.5742818821899320e-01
      - 9.9376424506951860e-03
      - -5.3047006341519332e-01
      - 9.7974997007575330e-03
      - -5.2270297104820707e-01
      - 1.0291876526770223e-02
      - -4.8258208051823231e-01
      - 9.3711336588916238e-03
      - -5.8959035078572042e-01
      - 9.0478105504417858e-03
      - -6.4383397348711890e-01
      - 8.9964590620730603e-03
      - -6.7546466172220621e-01
      - 1.0109326847219947e-02
      - -5.7442639335453338e-01
      - 1.1666586787245241e-02
      - -4.4742117899656098e-01
      - 1.5569502233323564e-02
      - -3.2877935884914433e-01
      - 8.7035444399037164e-03
      - -1.0984268698814850e+00
      - 8.8540878477020007e-03
      - -1.1301898173130005e+00
      - 8.9048908618408387e-03
      - -1.0780411219657771e+00
      - 8.7832168170033243e-03
      - -1.0696132999096126e+00
      - 8.5764968017971472e-03
      - -1.0639868272619124e+00
      - 8.6390026436249517e-03
      - -9.8585605492899286e-01
      - 8.6812782241056877e-03
      - -7.8263978067773587e-01
      - 9.0150492763408623e-03
      - -7.0185670973174530e-01
      - 8.7808448326987844e-03
      - -6.8370850901877345e-01
      - 8.5915589731891447e-03
      - -7.5000404581862512e-01
      - 8.5863817164111410e-03
      - -8.2091942338687951e-01
      - 8.6044741200100618e-03
      - -8.8045002066960099e-01
      - 8.8093199301318946e-03
      - -8.5830805773807806e-01
      - 9.3158119136653467e-03
      - -7.4807784435287339e-01
      - 1.0943132697551495e-02
      - -5.1887503219169484e-01
      - 1.6208126164301118e-02
      - -3.3731846984795505e-01
      - 8.7853475196331583e-03
      - -1.0211255060238553e+00
      - 8.6572490345370092e-03
      - -1.0077262739812365e+00
      - 8.7780932130357044e-03
      - -1.1357655604957333e+00
      - 9.0907260078087471e-03
      - -1.3072050784410441e+00
      - 9.2597198282861233e-03
      - -1.4053428680949183e+00
      - 9.2618692876036083e-03
      - -1.3675691281221978e+00
      - 8.5697896169889091e-03
      - -1.0282078100850913e+00
      - 8.9754912023212712e-03
      - -9.1625777397203056e-01
      - 9.0074870030654487e-03
      - -8.5012545354581015e-01
      - 8.7767069254843354e-03
      - -9.4215669180937844e-01
      - 9.0602622502656497e-03
      - -1.0898201163890968e+00
      - 9.0677812937282401e-03
      - -1.1211369462547569e+00
      - 9.1337510283660984e-03
      - -1.0292076726963435e+00
      - 9.5940150636241658e-03
      - -7.1300975586479587e-01
      - 1.0762147399319808e-02
      - -5.5736043235892940e-01
      - 1.4277912863835255e-02
      - -3.5319291594013252e-01
      - 9.1446841073992494e-03
      - -1.0355464035645163e+00
      - 9.2708285826403423e-03
      - -1.0553995538737608e+00
      - 8.8875982693143799e-03
      - -1.1975172992745025e+00
      - 9.3877057543899477e-03
      - -1.4311069749541272e+00
      - 1.0705486383589868e-02
      - -1.8709922939683734e+00
      - 1.0664271673153808e-02
      - -1.8510474932418044e+00
      - 9.6800245693163985e-03
      - -1.4962237976345643e+00
      - 9.6333324850775663e-03
      - -1.4686453252250073e+00
      - 9.5485146260843468e-03
      - -1.4339822858101670e+00
      - 9.4060364717919905e-03
      - -1.4421774881295615e+00
      - 9.0705484198807130e-03
      - -1.3154062198778957e+00
      - 8.9824773949349918e-03
      - -1.1363708821222140e+00
      - 9.1205134350084895e-03
      - -8.7494743657206442e-01
      - 1.0527465902629138e-02
      - -6.1551495446281013e-01
      - 1.3163884124740666e-02
      - -4.7124995571230704e-01
      - 1.4977243420595795e-02
      - -3.5624443278988571e-01
      - 8.5695382894728951e-03
      - -1.1326536825524420e+00
      - 8.5730416221521701e-03
      - -1.1709438797425242e+00
      - 9.0079644966872003e-03
      - -1.2494456209836815e+00
      - 1.0047837631818905e-02
      - -1.6385804823733763e+00
      - 1.0965378471940056e-02
      - -1.9223234110142966e+00
      - 1.0620845830743932e-02
      - -1.8833035553444153e+00
      - 1.0278033445181023e-02
      - -1.8178103697817891e+00
      - 9.8730985509078266e-03
      - -1.6257274873631211e+00
      - 9.1542423530622131e-03
      - -1.3828255835018588e+00
      - 8.9764316436354123e-03
      - -1.1851512752871236e+00
      - 8.8838049637005312e-03
      - -1.0177436952732897e+00
      - 9.4294189086798763e-03
      - -7.7455941035584697e-01
      - 9.7785026309155625e-03
      - -6.6614461753854015e-01
      - 1.1484696931771492e-02
      - -4.8548946120670400e-01
      - 1.6067340463302267e-02
      - -3.1075697123341428e-01
      - 1.5820651294373388e-02
      - -3.1245786306387441e-01
      - 8.6652719096026350e-03
      - -1.1880144056064625e+00
      - 8.7722935629401377e-03
      - -1.2680806048791682e+00
      - 9.0827346442838436e-03
      - -1.3387007204932122e+00
      - 9.7095274852048320e-03
      - -1.5956095248819564e+00
      - 9.9425841283603562e-03
      - -1.7059279248289978e+00
      - 9.5074340828093604e-03
      - -1.5127006728184180e+00
      - 9.3713205089875212e-03
      - -1.4149476913959600e+00
      - 8.8491230242981594e-03
      - -1.1032098243084441e+00
      - 8.9749053088328170e-03
      - -9.9175617592897702e-01
      - 9.3302928772269200e-03
      - -8.8065241634371361e-01
      - 1.0265804603404531e-02
      - -5.7555166847918648e-01
      - 1.1539242409925330e-02
      - -4.9791081697372608e-01
      - 1.4781029412812360e-02
      - -3.4836198866105489e-01
      - 1.7171084981389261e-02
      - -2.8616616626451646e-01
      - 1.7899235836887604e-02
      - -2.7906535872965677e-01
      - 1.5233148169142834e-02
      - -3.1440624321831490e-01
      - 8.5407570592010915e-03
      - -1.1727735009895837e+00
      - 8.7298000990221024e-03
      - -1.2867385223876799e+00
      - 8.8253928751802352e-03
      - -1.2960433283677830e+00
      - 9.0284978598694689e-03
      - -1.3591406875672332e+00
      - 9.3997412298273270e-03
      - -1.3779776493804010e+00
      - 8.8984799890888498e-03
      - -1.1284601619929266e+00
      - 9.1064572734229667e-03
      - -9.4225223002180691e-01
      - 8.8075999741443409e-03
      - -8.0955569892216328e-01
      - 9.5341952341383412e-03
      - -6.9983469432921963e-01
      - 1.0549821237006755e-02
      - -5.6188073886967149e-01
      - 1.2891195740364150e-02
      - -4.2699993163375016e-01
      - 1.6001072661072296e-02
      - -3.0895577634869137e-01
      - 1.8258094697007118e-02
      - -2.6598724319958095e-01
      - 2.2610913004656279e-02
      - -2.1796039191826133e-01
      - 2.0148368018157840e-02
      - -2.4629417398819567e-01
      - 1.5494508884779361e-02
      - -3.1386441861083908e-01
      - 8.4204892767546589e-03
      - -1.0032684902242393e+00
      - 8.6451855467788493e-03
      - -1.1039733530531135e+00
      - 8.7333105477131676e-03
      - -1.0374208863934469e+00
      - 9.0766675699427927e-03
      - -1.0313510874847009e+00
      - 8.9903496650094745e-03
      - -9.8674925462871854e-01
      - 9.5596372480099071e-03
      - -7.7991741807789916e-01
      - 9.6339355171085102e-03
      - -6.9689637441940777e-01
      - 1.0634540807533406e-02
      - -5.9101115260567960e-01
      - 1.1879987690738968e-02
      - -4.8299092812803041e-01
      - 1.3703399478108854e-02
      - -4.0064646850769559e-01
      - 1.6007882300602124e-02
      - -3.1719514831355439e-01
      - 1.6919402623321887e-02
      - -2.7516002513058224e-01
      - 2.6469889681402306e-02
      - -1.6492116330717865e-01
      - 2.1670431692384324e-02
      - -2.2444375681398052e-01
      - 1.7026745648218551e-02
      - -2.9067087213744530e-01
      - 1.4525887607858168e-02
      - -3.4715928143325964e-01
      - 8.6615056738027444e-03
      - -1.0018943592226310e+00
      - 8.7600840756430366e-03
      - -9.8576543499257141e-01
      - 8.7284087756066657e-03
      - -9.8840727686886132e-01
      - 8.8508504984323669e-03
      - -9.7701320161104566e-01
      - 9.0404196269960879e-03
      - -8.5634494356367163e-01
      - 9.3611987868146181e-03
      - -7.4230051289082277e-01
      - 1.0043437254206512e-02
      - -7.0584494417063037e-01
      - 1.0130426081777067e-02
      - -5.6773144349855176e-01
      - 1.4702506585812751e-02
      - -3.7634598026801214e-01
      - 1.7601497757207478e-02
      - -3.0065415487230046e-01
      - 1.9162879533412461e-02
      - -2.5297489669758139e-01
      - 2.8745012486063988e-02
      - -1.4941806814996250e-01
      - 3.0259263788577333e-02
      - -1.6613121774832557e-01
      - 2.1030923941165285e-02
      - -2.2724323011752620e-01
      - 1.5067847451563169e-02
      - -3.1975146410200284e-01
      - 1.4218171941392323e-02
      - -3.5910116731198338e-01
   output_scale:
      - 1.
      - 0.
      - 1.
      - 0.
      - 5.2631578947368418e-01
      - 4.9999999999999994e-01
      - 1.
      - 0.
      - 1.
      - 0.
      - 1.
      - 0.
      - 1.
      - 0.
      - 1.
      - 0.
      - 1.
      - 0.
      - 1.
      - 0.
      - 1.
      - 0.
      - 5.2631578947368418e-01
      - 4.9999999999999994e-01
      - 1.
      - 0.
      - 1.
      - 0.
      - 5.2631578947368418e-01
      - 4.9999999999999994e-01
      - 1.
      - 0.
      - 1.
      - 0.
      - 1.
      - 0.
      - 1.
      - 0.
      - 1.
      - 0.
      - 1.
      - 0.
      - 1.
      - 0.
      - 1.
      - 0.
      - 1.
      - 0.
      - 1.
      - 0.
      - 1.
      - 0.
   inv_output_scale:
      - 1.
      - 0.
      - 1.
      - 0.
      - 1.8999999999999999e+00
      - -9.4999999999999996e-01
      - 1.
      - 0.
      - 1.
      - 0.
      - 1.
      - 0.
      - 1.
      - 0.
      - 1.
      - 0.
      - 1.
      - 0.
      - 1.
      - 0.
      - 1.
      - 0.
      - 1.8999999999999999e+00
      - -9.4999999999999996e-01
      - 1.
      - 0.
      - 1.
      - 0.
      - 1.8999999999999999e+00
      - -9.4999999999999996e-01
      - 1.
      - 0.
      - 1.
      - 0.
      - 1.
      - 0.
      - 1.
      - 0.
      - 1.
      - 0.
      - 1.
      - 0.
      - 1.
      - 0.
      - 1.
      - 0.
      - 1.
      - 0.
      - 1.
      - 0.
      - 1.
      - 0.
   weights:
      -
         - -1.2175617263442578e-02
         - 6.0187149665518799e-03
         - 8.9984659490800279e-04
         - 1.2822273533558460e-02
         - 3.7706753890919811e-03
         - -6.8819832970718371e-03
         - 6.4311735725403908e-04
         - 4.9712546478066736e-04
         - -2.4180188722838485e-03
         - -7.1758707827329999e-03
         - -1.2665657722474575e-02
         - -4.5233775923618769e-03
         - 1.0430647684297261e-03
         - 1.9464142846762584e-02
         - -4.2712461755625890e-03
         - -8.9458082114033820e-04
         - 1.1089541355723388e-03
         - 3.7768322676288335e-03
         - -1.0016967053614063e-02
         - -1.1419577199640438e-02
         - -1.2024876631679705e-02
         - 2.3360409480843143e-03
         - 1.4840277373951315e-02
         - -5.5834453873907365e-04
         - 7.6780247151777973e-04
         - -5.6352398277838018e-03
         - 7.4794526072964789e-03
         - 1.1052313659989174e-02
         - -4.8025772194756709e-03
         - -1.9374830415241821e-03
         - 1.0566673493108707e-02
         - 2.6797106427123981e-03
         - 8.5377328622065563e-04
         - -1.4170255003829611e-03
         - 1.0399612546494422e-02
         - 7.0005595544855919e-03
         - 1.3894020832628716e-02
         - -1.1231516328343320e-02
         - -3.4880728650788571e-03
         - -4.4022818427410654e-03
         - 2.6146889570331172e-03
         - -2.2165875022092593e-03
         - 9.4674218795918737e-04
         - -5.2972797767173174e-03
         - -5.7910614136172890e-03
         - -1.9630643893672039e-03
         - 2.7737326454164986e-05
         - 4.2847573571542941e-03
         - 1.6156415721760770e-02
         - 9.4465039070920093e-03
         - -7.8569072820814986e-03
         - -1.0011752987248033e-03
         - -3.8142589560107997e-04
         - 1.9201197717581221e-04
         - -8.1902468569752876e-03
         - 5.2819835555149176e-03
         - 4.6437903257939665e-03
         - 6.1160844321999580e-03
         - -6.3791479736827854e-03
         - -8.8131184242994706e-03
         - 1.9400222728365023e-03
         - 4.1440536459354015e-03
         - 5.8560080285420769e-03
         - 5.3683377667243324e-03
         - -3.4009740893657281e-03
         - -1.4138982960012718e-02
         - 4.4390223002059069e-03
         - 9.7001470779900754e-03
         - -1.7572312267781704e-03
         - 1.1304972356848653e-02
         - -1.4330664872409773e-02
         - -3.9741581610091523e-04
         - 2.8512115242216945e-03
         - 5.9040986108477621e-03
         - -1.5632620122790967e-03
         - -1.6022429707900705e-02
         - 5.8974455403922972e-03
         - -1.1654969362347112e-02
         - 1.4895325286041067e-03
         - 4.0922411313278591e-03
         - -3.7122221284483824e-03
         - 1.6345166312159906e-03
         - -1.0479163689390144e-03
         - -2.1734912496356130e-03
         - -1.7948636566849672e-02
         - -4.4307834335810120e-03
         - -3.9949945023770436e-03
         - -6.9903645002215116e-03
         - -3.0058378360683534e-04
         - 5.9304323595788730e-03
         - 8.9168319727925844e-03
         - -4.0993645238006594e-03
         - 1.8151032298813327e-03
         - 6.2926973758403188e-03
         - -1.0370093856082592e-02
         - 1.9055368891065280e-03
         - -1.3764931020647452e-02
         - 4.3323032185023924e-03
         - 1.1992393651798791e-03
         - 2.0418272228561649e-03
         - -2.9031874341027180e-03
         - -2.1883060664891554e-03
         - 1.1874535558934335e-02
         - 3.9939807940205093e-03
         - -3.5919595992495064e-03
         - -7.7846592850191717e-03
         - 6.7032091958247522e-03
         - 2.6820264330504177e-03
         - -7.3139275429758236e-03
         - -9.1622454562897645e-04
         - -1.1727326295946482e-02
         - 2.4447492581794301e-03
         - 6.0182058219155369e-03
         - 1.1150546118142986e-02
         - 7.0626121393741245e-03
         - 1.4112847955053750e-03
         - -4.6441142706069817e-03
         - -5.6967299314123173e-03
         - -1.3596474974779602e-02
         - -7.9229606999723003e-03
         - -8.6799353001415676e-03
         - 7.4327971540730032e-03
         - 2.7321234196390626e-03
         - 5.8792351545238182e-03
         - -5.0855070408416924e-03
         - -1.1689061481108806e-02
         - 6.7226223957692309e-03
         - 1.1124577427139111e-02
         - 2.1153597435540783e-04
         - -6.4593227742096686e-03
         - 2.5072917008703175e-03
         - 1.2391315080597608e-02
         - -3.9368423751853752e-03
         - 5.4307295265770862e-03
         - 4.8004215522564533e-03
         - 1.4422143441518594e-02
         - 1.5188988881102294e-02
         - -1.4613060425318885e-02
         - -5.9793334897766592e-03
         - 5.3169545600203669e-04
         - 2.6327521245175902e-03
         - -7.8062460325604372e-03
         - 7.5672291803182083e-03
         - -7.6402796860729179e-03
         - -1.1329362698803152e-02
         - 5.4554403530098535e-04
         - 1.7223573575738484e-03
         - -2.2228518462937739e-03
         - 2.9533642652448820e-03
         - -4.1617182295689992e-03
         - 5.0852332992337036e-03
         - 6.9795336811764213e-03
         - -2.3799099596242216e-03
         - -1.6470428184661855e-03
         - -5.8049669641826642e-03
         - 1.2160656329571952e-02
         - 4.4202077803796851e-03
         - 6.6966255376617921e-03
         - 7.2457071019039446e-04
         - -6.0017023648764956e-03
         - -2.3243925303096141e-03
         - 2.7012999815160081e-03
         - 8.3886343131922298e-04
         - -6.2348191529026844e-03
         - -1.0849092227892635e-02
         - -1.0332378348920816e-02
         - -3.5444065274541671e-03
         - 1.7785808167817010e-02
         - -2.4582546981367828e-03
         - 1.5077827912476657e-02
         - -1.2870344929692855e-02
         - -1.2276081537929502e-03
         - 1.8835267230648369e-03
         - 1.3815142280842534e-03
         - 1.4665893300994466e-03
         - -9.2976622270796779e-03
         - 2.9917050939067139e-03
         - -1.7494241588197759e-02
         - -3.9421855683609720e-03
         - 2.1999771949047254e-05
         - -1.0389641105248829e-03
         - 5.6782548824052049e-04
         - -1.3115305762005558e-03
         - 3.3704295404548244e-03
         - -2.2278334679365241e-02
         - -2.7956612984731165e-03
         - 6.9873956688792831e-03
         - -5.5092942266807146e-03
         - -2.8143905902394545e-03
         - 2.4159217248691219e-03
         - 1.1620321946707791e-02
         - -3.4291031973490995e-03
         - 2.5860661016572054e-03
         - 7.3843618227019923e-03
         - -3.1221991877998742e-03
         - 4.5168690226100932e-03
         - -1.4255779851844647e-02
         - 2.5945657260384612e-03
         - -7.2880222007034407e-04
         - -5.2783080233835778e-03
         - -7.3972372677327727e-03
         - 4.4644512089554644e-03
         - 2.3374558126581994e-03
         - 1.2706855293563390e-02
         - -8.2418125113005551e-03
         - -3.5005743441226724e-03
         - 2.4525060859415570e-03
         - 6.9503680433923107e-03
         - 3.0053557865066303e-04
         - -5.1350082932522358e-03
         - -2.7451762839952741e-03
         - -9.0673313222045578e-03
         - 1.9559362392872225e-03
         - 1.6321951040002149e-02
         - -2.8906486293586425e-03
         - 1.6975434667411283e-03
         - 1.5867988843592687e-03
         - -1.1201422945694231e-03
         - -1.7401020276530857e-02
         - -1.9323514086591127e-02
         - -1.1468914001436533e-02
         - 1.3839950436950422e-02
         - 7.1449321761046245e-03
         - -2.3054780946232269e-03
         - -3.3674290764155387e-03
         - -3.8318008863305223e-04
         - 9.6147356382746667e-03
         - 5.0193931837729010e-03
         - 5.4776719480798663e-03
         - -2.6592904337169668e-03
         - 3.8199929141781450e-03
         - 6.7246985448271082e-03
         - 3.8285975200397179e-03
         - 1.2263745181287614e-03
         - 3.3057143285478651e-03
         - 7.4717592766486429e-03
         - 1.3569962736595713e-02
         - -9.1164642766508198e-03
         - -4.3572404074286907e-03
         - 5.4355749732359461e-03
         - -5.4638397186715327e-03
         - -4.7004987752552680e-03
         - 4.6303265962915332e-04
         - -5.6281675156192815e-03
         - -5.9222553151896994e-03
         - 5.6752827659712485e-03
         - -7.0991626098572673e-04
         - 2.5030803752140833e-03
         - 1.5809592136573916e-02
         - 4.4378902620594400e-03
         - -2.6570591766481690e-03
         - 3.2047142219657806e-04
         - -4.8969540105546780e-03
         - 3.1499424644469793e-03
         - -4.7176844138084569e-03
         - -5.1178195793848931e-05
         - 1.3126191417051430e-02
         - -2.9422609675531096e-03
         - -1.0071139318602465e-02
         - -4.7514757643644049e-03
         - -8.3774137956023152e-03
         - 9.2994608624648849e-03
         - 5.4672956036975829e-03
         - -2.7068028851427663e-03
         - -2.9769367450041520e-03
         - -3.9574043985719370e-03
         - 5.6091629756736565e-03
         - 1.3457692570311442e-02
         - 7.8515321948058343e-03
         - 1.4556885616639946e-02
         - -8.8100762058200312e-03
         - 9.1806899634601421e-03
         - 1.0147608480274002e-02
         - 8.9215622616857504e-03
         - 1.4454007121495951e-03
         - -2.7434610679746532e-03
         - -8.5358405236849615e-04
         - -1.0311473496253293e-02
         - -5.8575973486673467e-03
         - 1.0070542117240310e-02
         - -1.9702348810003308e-03
         - 3.8689056231472839e-03
         - 1.2698862810757385e-02
         - 3.4849984638495629e-03
         - -2.5907154390125475e-02
         - 8.3838201512440643e-04
         - 8.5652496843358194e-03
         - 3.6835561716298459e-03
         - 1.5344250584184177e-03
         - 1.5584253598569299e-02
         - 1.5555399686085904e-02
         - 1.5191665189634297e-03
         - -1.0300976735615462e-03
         - 7.0195600890248884e-03
         - -6.1291314742710212e-03
         - 1.3968226991980951e-03
         - -1.4902690684597613e-02
         - -3.1926080896066502e-03
         - -7.9319380283467914e-03
         - -9.3778765807785280e-03
         - -7.4542799065646622e-03
         - 1.4106504942651952e-03
         - 7.9288762385558067e-03
         - -3.9383582675310054e-04
         - 4.5701313991827934e-03
         - -1.0860636755738916e-02
         - 1.0393393775309142e-02
         - -8.8979239157924231e-03
         - -6.7911081123192031e-03
         - 6.1884794188507798e-03
         - -4.3300916532851581e-03
         - 5.6835237810594933e-03
         - 6.3938846837975009e-04
         - 7.7427893711621209e-03
         - 9.9323971285688751e-03
         - -3.5770254210854757e-03
         - 2.6894877328666488e-03
         - -1.1240664251213402e-02
         - -8.1619253454635471e-03
         - -1.4415329951524588e-02
         - -1.4511802340930498e-02
         - 5.4828408048699538e-03
         - -4.5042524256715807e-03
         - 4.7556690758727548e-03
         - -1.2439606084864803e-02
         - -1.2593212150514854e-02
         - 1.4355615385148627e-02
         - 1.1621750871225226e-02
         - 1.8256465704379016e-03
         - -1.1536820243356904e-03
         - 2.1754906537395256e-03
         - 4.8271676441333849e-03
         - 4.3560483388557962e-03
         - 4.3945419293310558e-03
         - 1.3761632572143077e-02
         - 1.4948059614188502e-02
         - 6.6902029658700030e-03
         - -3.4664362680279438e-03
         - -1.8304373325689304e-02
         - -4.2198956893301845e-03
         - 4.4278637782650719e-03
         - -7.6234860873245257e-03
         - 2.3045145147517205e-03
         - -1.6811129511076751e-04
         - -7.5392677526916908e-03
         - 5.8517326256736033e-03
         - 1.2369894614176345e-03
         - 5.1197273494628173e-03
         - 1.4320447915501217e-02
         - 1.7535682237311342e-03
         - 3.8400839200590608e-03
         - 7.1513554802199002e-03
         - -6.3661602195228843e-03
         - 3.2062952494803067e-03
         - -2.5733027726248165e-03
         - -8.0326378636838086e-05
         - -4.8589193182813272e-03
         - 5.4707173397231350e-03
         - -7.5131619836271849e-03
         - -2.8694793111372638e-03
         - 2.1291705538860292e-03
         - 5.3104854802829031e-03
         - 7.9582243329930254e-03
         - 1.8340228356654175e-03
         - -4.6706141695824203e-04
         - -7.0839508593861164e-03
         - 1.1136295784354102e-04
         - 8.2588976708077196e-03
         - -3.9460963081756634e-03
         - 1.1811608548634086e-02
         - -1.0675528437622523e-02
         - 1.1722754506050053e-02
         - -3.4973757472296267e-03
         - -3.4325578838156181e-03
         - 7.3089794589303930e-03
         - -1.3080752805479593e-03
         - 3.3232618772594457e-03
         - -1.6890880864772920e-02
         - -8.5324661873769324e-03
         - 1.1585977451877465e-02
         - -1.4388972691951155e-04
         - 1.7896275523480690e-03
         - 3.8534797791691597e-03
         - -2.0982799042748107e-04
         - -1.1127215784631916e-02
         - 1.7766977099779003e-03
         - 9.8759144554656578e-03
         - -6.6770211017233945e-03
         - 2.4060193246223491e-03
         - 9.4345134718901245e-03
         - 1.3986809547658232e-02
         - -1.8810544998426367e-03
         - 5.2584991553674765e-04
         - 8.4534057219835049e-03
         - -6.4397795565191880e-03
         - 3.4986758275198991e-03
         - -1.8705923280997207e-03
         - -1.2106900030297016e-03
         - -1.6390139016706534e-03
         - -1.3069008357937893e-02
         - -6.8695518819905611e-03
         - 1.1484885948091338e-03
         - 6.6608349895899178e-03
         - 4.0691988350294288e-03
         - 1.2958502301606899e-03
         - -7.4976060511028472e-03
         - 8.2017069083119634e-03
         - -2.2030173519728795e-04
         - 3.2946725639268247e-03
         - -1.7610889952807151e-03
         - -9.7093655364393766e-03
         - -3.9165621112710663e-03
         - 1.1634358231223997e-03
         - 5.3665481054765525e-03
         - 4.0227537476163946e-03
         - 3.8192609359255177e-03
         - 5.0989535877853012e-03
         - -8.7026793470484972e-03
         - -1.2570159175684589e-02
         - -1.5805169644280883e-02
         - -8.7091280899587852e-03
         - -2.9545418821666513e-04
         - 8.5220747087902601e-03
         - 3.6394813744020128e-03
         - 1.8410019651205621e-03
         - -2.9659539759865467e-03
         - -4.3104164277804022e-04
         - 2.0138131386317902e-03
         - 3.9000462029964360e-03
         - -8.6998453628015643e-03
         - 2.7002946007980409e-03
         - 7.3558899074814580e-03
         - 3.5903987572983649e-03
         - 6.4715441373033606e-03
         - 2.6546428387805867e-03
         - 5.0520297300569719e-03
         - 1.1001991413949757e-02
         - -3.2803789016475304e-04
         - -7.3629257591159274e-03
         - 4.1507056253705992e-03
         - 3.9207438683970626e-03
         - -3.4551697708628845e-03
         - -2.5997715718549625e-03
         - -7.2185334891898976e-05
         - -3.0159263534685304e-03
         - -3.0335195208474480e-04
         - -5.9890229304379646e-03
         - 5.3046306963161552e-03
         - 1.5146569780555516e-02
         - -2.3513746084428497e-03
         - 3.3783766719338343e-03
         - 4.8207790793898080e-03
         - -4.6828657668936671e-03
         - 3.4322162617020841e-03
         - 5.6186041028700512e-03
         - 6.9188005724585425e-03
         - 3.4506917971192535e-03
         - 1.5240733708831822e-03
         - -6.1162919176051952e-03
         - -3.2321753935251182e-03
         - 9.3811027219272032e-04
         - 1.0498698292937743e-02
         - 4.5550905599640043e-03
         - -1.5544084115675860e-06
         - 1.3157647723629068e-03
         - -2.2273176814906264e-03
         - 1.1328685941752955e-03
         - 1.6035078582322500e-02
         - -5.4779803153076352e-04
         - 9.1638681166773591e-03
         - -2.8612905990798585e-03
         - -9.4139405783907545e-04
         - 2.0538634726938571e-03
         - 2.4006291452441041e-03
         - -4.6696374004205561e-04
         - 4.2566549353604856e-03
         - -2.3564296877485731e-04
         - -3.0069853485080516e-03
         - -1.1919142741877364e-02
         - 4.2459124823663484e-03
         - -3.1240072221725024e-03
         - 8.4943655499410409e-03
         - -2.9690937246979973e-04
         - 8.0521519148575391e-03
         - -1.4284670978045104e-02
         - -6.0450366896526641e-03
         - 2.8722201617659713e-03
         - -6.8174467016868558e-03
         - -3.2376058029993628e-04
         - 4.1777867044431516e-03
         - 2.1568358524927337e-03
         - -6.8069984166795371e-03
         - -2.5414009975894881e-03
         - 1.0102351852295445e-02
         - -5.6855509120279811e-03
         - 3.1656959006504063e-03
         - -1.4041259428082008e-02
         - 1.9899712081561279e-03
         - -7.8826137888940977e-03
         - -2.1194837333082581e-04
         - -2.2317437925180421e-03
         - -7.4377553387894218e-03
         - 6.2511858006655619e-03
         - 8.4864934700474171e-03
         - -1.3062871575069228e-03
         - -8.9929404888484943e-03
         - 1.0830741134940862e-03
         - -6.0443844009360793e-04
         - -6.3628420523785603e-03
         - 2.6536989576047567e-03
         - 2.1739808770648242e-03
         - 1.0533346578892495e-02
         - 1.6592815493008048e-03
         - 8.9289355317798847e-03
         - 8.6178625904661400e-03
         - 7.8964280613629326e-03
         - 4.3539138367032224e-03
         - -4.0396069366852279e-03
         - -7.1860287866934228e-03
         - -1.2593081821202914e-02
         - -8.4643332281029663e-03
         - 6.3453072947028477e-03
         - 2.4082990434675373e-03
         - -1.2864953410503055e-03
         - -1.4276847580509832e-02
         - -8.7918455173783931e-03
         - 2.8709972904770948e-03
         - 8.1885698016127013e-03
         - 3.7926787900024348e-03
         - 4.0868100509953414e-03
         - 6.3369744690325780e-03
         - 6.2539093070045776e-04
         - 1.1410052549303946e-04
         - -5.0301754986412373e-03
         - 2.4301132553869748e-03
         - 1.1592102637262300e-02
         - 9.3137960289048046e-04
         - 2.1309933998069825e-03
         - -7.2858677381541373e-03
         - 1.8406962867772993e-03
         - 2.3900720802148838e-03
         - -8.1652457911899397e-03
         - 5.1849216841421521e-03
         - 4.3554085024190376e-03
         - -3.1744826492670574e-03
         - 6.7697370501964404e-03
         - 1.1460955576085253e-03
         - -6.1296345590339382e-03
         - 4.3390703278611657e-03
         - -2.2426912122375109e-04
         - 8.3877029504965638e-03
         - 1.1714945938920959e-02
         - -2.5381798877147747e-03
         - 5.7851010907282790e-03
         - 8.4592388208654043e-03
         - -1.6839348065626342e-03
         - 2.4552765075905548e-03
         - 4.4875810049167979e-03
         - -1.1135041227706547e-04
         - -1.4746588037794677e-03
         - 2.3007486242647497e-04
         - 4.1592618608514171e-03
         - 5.0460594827610910e-03
         - 4.6041374883663312e-03
         - -6.6489366523812751e-03
         - -5.1674021753035431e-03
         - 3.0904657967474633e-03
         - 1.2895794498443304e-02
         - 4.7343121746016310e-03
         - 9.5561902438024218e-03
         - -1.0111639394152914e-02
         - -3.5753823028613534e-03
         - 1.6013804387982004e-03
         - -1.3815285383470387e-03
         - -2.3680512365044505e-03
         - -3.4138477780487264e-03
         - 7.2751254317617751e-03
         - -9.3749844956369822e-03
         - -7.9419339251953370e-03
         - 7.0232741044124773e-03
         - 3.2555214057003274e-03
         - -5.0966031049490650e-03
         - 7.6227670954186633e-03
         - -2.0904890144093427e-03
         - -9.0081898746047287e-03
         - -1.9964369259076187e-04
         - 6.9957355108027277e-03
         - -2.5158630968975526e-03
         - 2.2967910301419957e-04
         - 8.1062908943794285e-03
         - 9.6466378685766737e-03
         - 5.6110417865875622e-03
         - 4.7428560664796051e-04
         - 4.1502171344501649e-03
         - -1.0136865843107813e-02
         - 6.0226510874807114e-03
         - 3.6848701593440430e-03
         - -3.8094162882831161e-03
         - -4.0620964664484097e-03
         - -1.2777996484012854e-03
         - 9.8071870133087224e-03
         - -6.7030288269877411e-03
         - 1.2269620950299696e-03
         - 4.3513377577588117e-03
         - 7.0695724888978906e-03
         - -6.8004941596207648e-04
         - 1.0363969040769838e-02
         - -4.7727523450779054e-03
         - -5.0648905307228266e-03
         - 1.5676591347979880e-03
         - -1.4758387073626183e-03
         - 3.7335221411549527e-03
         - 2.7078340210065759e-03
         - -3.4230783959291137e-03
         - -3.0663451511994391e-03
         - 1.0834419026570668e-03
         - -9.9807868891401926e-04
         - -6.0211071441572716e-03
         - 2.4124249028723015e-03
         - -1.2693865020139364e-03
         - -2.5345235499878104e-03
         - -1.0521289171731701e-03
         - 5.5506253673594007e-03
         - 2.9218336975320554e-04
         - -1.3561765058980964e-02
         - -1.5826407327443229e-03
         - 3.6032718930742997e-03
         - -4.1100808351984073e-03
         - -1.1459236291235791e-03
         - 4.2066488281181959e-04
         - 5.5201595979051327e-03
         - 1.2306331386167331e-02
         - 1.7008194000190475e-04
         - -1.6515003758737045e-03
         - 9.3299966906655752e-03
         - 5.2493293437319280e-03
         - -1.2775229551736775e-03
         - -6.3363619716312151e-03
         - -6.7895369677785315e-03
         - 1.4792914910730670e-03
         - -7.5070119846765513e-03
         - 1.2797275155285259e-03
         - 5.6100805366824909e-03
         - -3.3938041380028620e-03
         - -6.2624096123775255e-03
         - 1.0804303209586764e-04
         - -1.4161398739247814e-02
         - -1.6142036651902916e-03
         - 4.4752581404636166e-03
         - -1.0224527051169679e-03
         - 9.2247621807443967e-04
         - 1.0961682768538364e-02
         - -1.2900281996955114e-02
         - -1.2433431484981141e-06
         - 5.6433699671314911e-04
         - 8.5156742701936444e-04
         - -6.8775035394298880e-03
         - -2.3850969087575668e-03
         - 5.5125907481287043e-03
         - 6.5464449096645705e-03
         - -5.5132784423845256e-03
         - -5.5970578170096144e-03
         - -8.7073103720935715e-04
         - 7.4965153767965378e-04
         - -2.8606829497210221e-03
         - -9.0681604641672121e-03
         - 5.4077392068113336e-03
         - 1.0208786811299907e-02
         - -6.3131939510620416e-03
         - -1.1747932076524449e-03
         - 5.0437968833995997e-03
         - 6.6501090080848145e-03
         - -3.4407260056211128e-03
         - -1.3404838477267215e-03
         - 6.1311207159598568e-03
         - 1.9970265802992362e-05
         - 5.0038942603440164e-03
         - -2.3331731954585766e-04
         - -1.0944599198638764e-02
         - 3.2423355262860454e-03
         - -2.8099663040454218e-03
         - 5.1669172697245891e-03
         - 4.3305849350422981e-03
         - -5.1097811648636391e-03
         - -1.2773583531570471e-02
         - -6.4291921023762087e-04
         - 2.3870866880202866e-03
         - 1.6830994742985396e-03
         - -4.8740927406311337e-03
         - 3.9415273988089453e-03
         - 1.2405755406681336e-03
         - -3.1925234327562059e-03
         - 6.2576248333562042e-03
         - 3.6274955652584053e-03
         - -2.3650403976757817e-03
         - 4.8372006558949163e-03
         - -5.4785290738816423e-03
         - -2.7015392333476990e-03
         - -2.8210195284651602e-03
         - -5.1268748091805863e-03
         - -5.9381475473592818e-04
         - -1.4170528967481945e-02
         - 4.0057029780405920e-03
         - 5.5693556745966735e-03
         - -9.2366969065969015e-04
         - -5.3667012485709743e-03
         - 1.6849332866422852e-02
         - -1.9207171469736630e-03
         - -1.3360202959216808e-02
         - 7.8601904259308197e-03
         - 4.3768845826358711e-03
         - 4.0629170632068659e-04
         - 2.3639398142110265e-03
         - -9.1135276626260111e-03
         - 1.0750405309739993e-02
         - 5.8463008153436715e-03
         - 3.0696395249647417e-03
         - -7.1016904657321663e-03
         - -3.8123720892069502e-04
         - -3.2214737136557598e-03
         - -2.4377444688744652e-03
         - -2.9412741112434916e-03
         - 3.3760214161552391e-03
         - 3.3383330668184698e-03
         - -1.3943320584307995e-02
         - -5.1885499273043702e-03
         - -6.8063987572655705e-03
         - 8.9202728663916250e-03
         - 6.0428252708758633e-03
         - -2.0976462587450869e-03
         - 5.8132681884615353e-03
         - 2.7163314353263798e-03
         - 1.1919299603286545e-02
         - 5.5562253762205926e-03
         - 1.1591646209575908e-02
         - 8.9521795882042780e-03
         - 1.6549141301567835e-03
         - 1.1827610603713052e-03
         - -4.8603300055691323e-03
         - 5.2872628077074127e-04
         - 3.6319894220675553e-03
         - -8.9350465238313553e-03
         - 4.8033567051196319e-03
         - -8.8773866619275754e-04
         - -9.1672100727033141e-03
         - 1.7349439307510184e-03
         - -8.9048791090716554e-03
         - 2.5764382883153026e-04
         - 3.3507621116015183e-04
         - 5.4444003938625843e-03
         - 1.5939346159165760e-03
         - 1.4855108681620063e-02
         - -1.5537673904667454e-02
         - 7.0206611171928501e-03
         - 3.4525719822711323e-03
         - 4.1133588690946306e-03
         - -1.2541166419897906e-02
         - -1.6643137102773620e-03
         - 1.0310125647028309e-02
         - -3.4455318481411905e-03
         - -2.9069385699078618e-03
         - -6.8971663241412925e-03
         - -8.7676938354336580e-04
         - 8.6085820569601972e-04
         - -1.3269459645995664e-03
         - 1.5170700578839508e-04
         - 1.4534693312379262e-03
         - 4.0272773119748220e-03
         - -1.2876146261697576e-03
         - -4.3666030094893218e-04
         - -7.8489861817592696e-03
         - -5.0979580511069638e-04
         - -4.5207307227112456e-03
         - 7.2287000784023771e-04
         - -1.4518327438559277e-03
         - 1.3784983941177978e-02
         - -8.4786554798401120e-03
         - -4.6458933223904424e-03
         - -7.2844299041250928e-03
         - 1.8901571367677225e-03
         - 4.8293305364585119e-03
         - -3.3998910670572607e-03
         - 1.4440415240118394e-03
         - -5.3484901964182567e-03
         - -1.4066564856825151e-02
         - 1.0422868905736102e-03
         - 8.5321664387318277e-03
         - -1.2845339486799740e-02
         - 4.2923179455739407e-03
         - -2.4846421970512460e-03
         - 1.2848162008988870e-02
         - 3.0276886684692389e-03
         - -1.6725289515638489e-03
         - 1.0951241795312013e-02
         - -1.3957776107783470e-02
         - 3.3528887391748507e-03
         - 9.2076181890651224e-04
         - 4.4153159072915730e-03
         - -1.3772784303156182e-02
         - -2.1579108282894781e-03
         - -4.4795320868262073e-03
         - -5.3422986320151413e-03
         - 5.3433357931264242e-03
         - 6.9328004002290680e-03
         - -4.7553015874422129e-03
         - -1.6356045919667076e-03
         - -6.0508082836301953e-03
         - -5.6866464913121577e-04
         - 3.8170375343877494e-03
         - -4.6788515947345470e-04
         - -1.9826306483355454e-03
         - 5.6171122270714377e-03
         - -6.6096200528189646e-03
         - 4.0557914003963415e-03
         - -7.1103551868819687e-03
         - 6.3506337504342985e-03
         - -1.9236276262966557e-04
         - -1.0717330005228019e-03
         - -4.3532504764385454e-04
         - 4.3877627522225724e-04
         - -8.2745615156867771e-04
         - -5.6437696238363028e-03
         - 3.5759793678037215e-03
         - -4.4816786548869695e-03
         - -4.3724747611989870e-03
         - 3.9464235867023535e-03
         - 1.3436884850010188e-04
         - -7.2150600495469409e-05
         - -3.8751367190552723e-04
         - -8.5635392924860788e-04
         - -5.2143654592181560e-03
         - -4.4902327395047634e-04
         - -3.1408484146472511e-04
         - 7.2892586776200120e-03
         - 5.6687713976780576e-03
         - -5.8380765672160825e-03
         - 3.7596264920422662e-03
         - -6.6038086613947377e-03
         - 6.2875412709215402e-03
         - 4.3509319475655076e-03
         - 1.4534399094313618e-03
         - 5.5843180839874771e-03
         - -3.6374959010963603e-04
         - -3.1681406016407783e-03
         - -4.9769261807839022e-03
         - 5.3093348340840490e-03
         - 2.9413522122833679e-03
         - 4.4628223303499488e-03
         - -6.8456051365645742e-03
         - -1.2173845962314253e-03
         - 1.1627902085127578e-03
         - -8.2194891177781717e-04
         - 7.5306003950876199e-03
         - -2.4431951367361688e-03
         - -5.8667687374053144e-03
         - -7.6392428395161320e-03
         - 4.6678089711628505e-03
         - 6.7091740692214283e-04
         - -6.0720323342774970e-03
         - -3.4531070270755315e-03
         - 4.4613970646635659e-03
         - -7.2813458142498592e-03
         - 2.6821457398452011e-03
         - -5.0369850028205909e-03
         - 5.8593930357340633e-03
         - 2.9300233115983998e-03
         - -2.3339468699683920e-03
         - -4.8103884388622379e-03
         - -3.5996912703319412e-03
         - -1.6918216910354212e-03
         - -8.8976607317664796e-04
         - -2.1031352762672481e-03
         - -4.6676018650710343e-03
         - -7.3114140769948320e-03
         - -4.1064831788927758e-03
         - 1.5865997054618061e-03
         - 5.2211075768308392e-03
         - -2.1797780411568191e-03
         - -5.4913031404817143e-03
         - 7.0386999016708446e-03
         - -3.0761163544579802e-03
         - 2.0530971813321336e-03
         - -6.2906895883088950e-03
         - -7.1655093901884792e-03
         - -2.7495332910713946e-03
         - -5.9216936171963051e-04
         - -3.7178376735536012e-03
         - -7.3302690282444705e-03
         - -5.7120483221448351e-03
         - -6.4227581788934528e-03
         - -9.6383773919064310e-04
         - -1.7549359759045564e-03
         - -3.3495019719723055e-03
         - -1.4231582565274513e-03
         - 3.8429015124256940e-03
         - 7.6986750079007541e-03
         - -3.3421728477843349e-03
         - 2.1282489170438962e-03
         - 7.2029597306309725e-04
         - -6.0877875660541045e-03
         - 5.4654362172636634e-03
         - -2.9502734708555436e-03
         - -2.0686509442220793e-04
         - -2.5178993215945523e-03
         - 2.4181393978276516e-03
         - -3.6579413687168683e-03
         - 1.8361074647725161e-04
         - 7.2590058317456739e-03
         - 1.5900785124564659e-03
         - 6.2424742654844899e-03
         - -2.1241880642221293e-03
         - -5.5888530321214153e-03
         - -3.1066845095293512e-03
         - -4.9126451277915362e-03
         - -5.6084388609223433e-03
         - -6.2352104721062306e-03
         - -1.9558332438340520e-03
         - 2.7168201587400177e-03
         - -1.1841401249434328e-04
         - 1.8184640541019867e-03
         - -3.7585348963084272e-03
         - -8.6041864305502801e-04
         - 4.8037767850103615e-03
         - 2.1552454378193247e-03
         - -6.6009443667599220e-03
         - 7.7564908287515747e-04
         - -2.3821941912706979e-03
         - -3.4011441918518951e-03
         - -4.6640025231960746e-03
         - -6.3129175769925158e-03
         - -5.5569188629650971e-03
         - -6.6981036729807141e-03
         - -1.7587955223062660e-03
         - -1.1039341057922797e-03
         - -6.5695641861359495e-03
         - 2.5093362425871748e-03
         - 3.6336854041027310e-04
         - 2.0062501869717734e-03
         - -1.4882576610798788e-03
         - -1.2721832544260502e-03
         - 7.5872810576587790e-04
         - 2.1201891457959805e-03
         - -1.9252769887082078e-03
         - -6.9176077610387209e-03
         - -7.3272087382287273e-03
         - 6.1725996095701957e-04
         - 5.7686489692802727e-03
         - -7.2124881170502666e-03
         - 3.5997111518358267e-03
         - 1.3157334696308144e-03
         - 2.2307360137449289e-03
         - 3.4568033243397418e-06
         - 4.8945869199095368e-03
         - 5.9275989206092981e-03
         - 7.3217224107537584e-03
         - -5.8128231873619228e-03
         - -6.6095480013883988e-03
         - -6.4730327651469528e-03
         - 4.5986506783051726e-03
         - 6.6018064557655208e-03
         - 1.1671511742035276e-03
         - 7.1190805301308581e-04
         - 1.0320800788535562e-03
         - 5.9206396982185699e-03
         - -2.7456144238078629e-03
         - -3.3478209154693566e-03
         - -5.6295860651480768e-03
         - 6.8232658183477943e-03
         - 6.8505097429298594e-03
         - 1.7173134831454915e-03
         - -5.4851905786406268e-03
         - 5.9240520980613097e-04
         - 7.1289984040311168e-03
         - 1.1954360532031307e-03
         - -5.0875577472103712e-03
         - -7.3284393346281654e-03
         - 4.1796268206276601e-03
         - -5.4999474965438094e-03
         - -2.8372093647116754e-04
         - -6.9552421890094057e-03
         - -3.6369652025221966e-04
         - -5.2105119905682083e-03
         - -1.5590303834839561e-03
         - -7.2299585773992698e-03
         - 4.3087947342866943e-03
         - -6.4440623322933495e-03
         - 2.9710331630766868e-03
         - 6.5818269680048330e-04
         - -4.3990262635721410e-03
         - -4.2324747573021671e-03
         - -6.3890917541864637e-03
         - 7.7641779726280438e-03
         - 5.3465285519254226e-03
         - -5.9434356844063159e-03
         - -5.0240449848741684e-03
         - 6.9232078659791623e-03
         - 4.9862851725933572e-03
         - -2.8970647800325754e-03
         - 7.5691079102541423e-03
         - -6.6881863098776709e-03
         - 5.9265637872271907e-03
         - -7.3195430767547896e-03
         - 6.6663992285374996e-03
         - -3.7336870559152649e-03
         - 5.6519354863572586e-03
         - -6.9628910555239966e-03
         - -1.2493584416858110e-04
         - 6.9573080961309718e-03
         - -4.1771721365924446e-03
         - 2.7367064770934086e-04
         - 5.5959099767294480e-04
         - -5.2013696853081808e-03
         - -9.8381678422278761e-04
         - 2.4386439260120417e-03
         - -4.6959863108878008e-03
         - 6.4463092392419282e-03
         - 1.9453271240402975e-03
         - 3.6635656742665299e-03
         - 6.6314751680830973e-03
         - -3.1933648074942002e-03
         - -1.4670393214494847e-03
         - 8.5725274719762232e-04
         - 2.7349809704029583e-04
         - -5.5448482554181517e-03
         - 6.5874617190105761e-03
         - 6.2843088636326096e-03
         - -1.0855236437018040e-03
         - 6.1636386743954691e-03
         - -3.5454522697310944e-03
         - -1.6691094685902964e-04
         - 6.9810249304178961e-03
         - -6.5826140187077980e-03
         - 7.6807244835417014e-03
         - -6.1362452535363545e-03
         - 5.0182569969316956e-03
         - 4.8479066460251257e-03
         - -5.8108005469800269e-03
         - -2.3963430153271302e-03
         - -2.9185561480178117e-03
         - -6.3084530103839813e-03
         - 3.1796356865944463e-03
         - 3.1145326164921205e-03
         - 6.0191981144749425e-03
         - -9.6605241569171199e-06
         - 5.5762944343309912e-03
         - -1.1947378720499743e-03
         - 5.7789726163653956e-03
         - -6.0125902762796343e-04
         - 6.9369755641637589e-03
         - 7.3269102476442608e-03
         - 3.7819918515860540e-03
         - -9.9173079017804422e-04
         - -2.2175620032289230e-03
         - -6.5150831552154512e-03
         - -4.1765065502420975e-03
         - -7.0215401000829443e-03
         - -4.5854655767995677e-03
         - -2.3882703378246432e-04
         - 3.4904751272898499e-03
         - -5.0575913094237637e-03
         - -4.8016985291749864e-04
         - -5.9953771395924943e-03
         - -2.6690454095980166e-03
         - -7.6664887084802952e-03
         - -5.1618990533122307e-03
         - 6.5109558389196322e-03
         - -5.6794849198215714e-04
         - -1.1567318127892784e-03
         - 3.2727859936672347e-03
         - 2.5472829255297225e-05
         - 5.5083432010668981e-03
         - 4.8678035941948933e-03
         - -4.9790421398901588e-03
         - 1.4688207677316129e-03
         - -4.5090207432858269e-03
         - -3.9874437755028837e-04
         - 5.2982929515259618e-03
         - -4.6181501915445056e-03
         - -6.6932285087643638e-03
         - 4.2208643146741413e-03
         - -2.7125256819102708e-03
         - 2.3030270122246092e-04
         - -6.9832284970147880e-03
         - 2.6034849355108317e-03
         - 1.1604463140058132e-03
         - -2.5104242013970737e-03
         - -6.9144642107718535e-03
         - -3.1962444554640736e-03
         - 6.9599801890131881e-03
         - -1.8935353430783023e-03
         - 1.2193950327013699e-03
         - 3.0978481624010876e-03
         - -3.1422055517461292e-03
         - -1.0922156953628034e-04
         - 2.7932403652216734e-03
         - 2.1152098685798428e-04
         - 3.7859382451740984e-03
         - 3.0456255116033549e-03
         - -6.0023012497201569e-04
         - 5.7861867846304834e-03
         - 8.4007800208060323e-04
         - -5.6035976919023758e-03
         - -4.4768156770116111e-03
         - -2.8512287863441585e-03
         - -6.7633672573320265e-03
         - -2.4048170990490082e-03
         - 6.9759699734677138e-03
         - -1.2514840213740564e-03
         - 7.1411662088134579e-03
         - -7.7050453779249862e-03
         - 4.8530566816601534e-03
         - 3.8787526174991760e-03
         - 1.8646754789601529e-03
         - -3.8101435095468680e-03
         - -1.3583998972345817e-03
         - 1.3885418814473371e-03
         - 9.5327382738528640e-04
         - -5.7001045440214365e-03
         - 1.8521712170245775e-03
         - -5.4946130103706754e-03
         - -1.6606682819185294e-03
         - -6.0986462966836977e-03
         - -5.2043989532594408e-03
         - 2.1610698799094693e-03
         - 3.5570252214320959e-03
         - 6.6957702357933416e-03
         - -5.2183498181956230e-03
         - 1.8619081109833302e-03
         - -5.7106749411935482e-03
         - 6.5322953564412179e-04
         - -6.6047701352935379e-03
         - -7.6997458669474765e-03
         - -5.0045930863672097e-04
         - 1.6602592479820963e-03
         - -1.1682896500133677e-03
         - -4.4238767071551289e-03
         - -5.4893431372807604e-03
         - 7.5124722451236988e-04
         - -2.1336674020262128e-03
         - -6.1870178924701745e-03
         - 9.2426802160576006e-06
         - 1.0747048390214828e-03
         - -3.3700199126950191e-03
         - 2.6453504209632481e-03
         - 9.9048004041208358e-04
         - 1.1718660611732040e-03
         - -6.4294245007664322e-03
         - -2.0211829431700363e-03
         - 1.4000984962676932e-03
         - 1.4467877757785162e-03
         - -4.5168123510123045e-03
         - -1.9102592434996728e-03
         - -4.9016393211436509e-03
         - -1.5608246947868458e-03
         - -5.0251493537246611e-03
         - -2.6289969475545454e-03
         - -5.3158942171391563e-03
         - -4.6702734093773549e-03
         - -1.4337009931567493e-03
         - 2.6511485928309465e-03
         - 2.4461776171475873e-03
         - -7.3384816211973279e-03
         - -3.6252474710418347e-03
         - 5.1477182996495473e-03
         - 2.7328042769797526e-03
         - -2.9010103928017342e-03
         - 3.2936650986742063e-03
         - 3.4738364562876085e-03
         - 2.3454331052099064e-03
         - -3.9835844202355504e-03
         - -3.2346212145863027e-03
         - -8.5076865675965611e-04
         - -1.9851064279771194e-03
         - 4.3110608104354959e-03
         - 4.1224347965888638e-03
         - -7.3607025888092967e-03
         - -1.8762444004601134e-03
         - -1.4505662489599387e-03
         - 4.2971153741037313e-03
         - 1.2574571140581069e-03
         - -6.6285621841651850e-03
         - -4.0272321169610333e-03
         - 6.2786514382331404e-03
         - -6.3755713438538057e-03
         - 1.0459884732147006e-03
         - -6.0903327783607009e-03
         - 2.0017594072047049e-03
         - 2.0490833589181961e-03
         - -1.4965731491707443e-03
         - 9.7638191290699860e-04
         - 6.3648849963784445e-03
         - 4.1368020241880224e-03
         - -5.6133093872042300e-03
         - 4.4271533610141479e-03
         - 4.7972113109342298e-03
         - -1.5064388898667674e-03
         - 7.1581520261843863e-03
         - -3.7483900557635196e-03
         - 2.2114766790608072e-04
         - -5.0368017861053748e-03
         - -5.2131521229223749e-03
         - 2.0319517529537373e-03
         - -7.4873111964508642e-03
         - -1.6968184103182502e-03
         - -6.4705964971498316e-04
         - 3.4699816456021495e-03
         - -4.9296381836119226e-03
         - -6.8923332914589243e-03
         - 6.2132179814832827e-03
         - -3.9738957925334190e-03
         - -2.1953424287018248e-03
         - -3.4456674599805631e-03
         - -4.1253122282529303e-03
         - 2.2943037270005688e-03
         - 5.1755086863225219e-03
         - 2.7421026445611206e-04
         - -2.0962489134708833e-03
         - -2.6024017364533647e-03
         - -5.8410962157449016e-03
         - 1.6209274164685056e-03
         - -5.8221383894181836e-03
         - 2.0985286085383279e-03
         - -3.6496695817232892e-03
         - 1.1743824447779487e-03
         - 2.0681826900010793e-03
         - 4.2165216666389879e-03
         - 5.8649013330076491e-04
         - 2.6044712378987182e-03
         - -1.3547141147791570e-04
         - -7.3917621284474259e-03
         - -8.6265662850196516e-04
         - 5.6860943974389629e-03
         - 2.5303811967330465e-03
         - 4.2346663107476583e-03
         - -2.6884703317694089e-03
         - -3.3093726616508694e-04
         - 7.1975550776192821e-03
         - 2.0387123866708887e-03
         - -5.3884092602372088e-03
         - -6.5887063581235713e-03
         - 5.6872866280012853e-03
         - -5.7728089627040362e-03
         - -2.0872747793173876e-03
         - 1.4757616942900555e-03
         - 7.2972661877339371e-03
         - 5.7909045420110033e-03
         - -4.8731853954894046e-03
         - -3.5034757487138013e-03
         - -6.9680362570297139e-03
         - 1.9664190538887529e-03
         - 2.3063193006561699e-03
         - 5.2442198533057868e-03
         - 6.8740606848214196e-03
         - -6.6603742500723692e-03
         - 3.5884309915493562e-03
         - -5.4434268082536597e-03
         - -7.1356367764548578e-03
         - 4.4481807599527513e-03
         - 6.9024517809805619e-03
         - -5.0236427334973245e-03
         - 6.4010060112015725e-03
         - -6.4480294292952800e-03
         - 1.8336120727546564e-04
         - 4.5162383025048819e-03
         - 7.4353748462157154e-03
         - -3.9657679276296392e-03
         - 6.7100292428712710e-03
         - -3.1107965108902224e-03
         - -7.2692254469819053e-03
         - 6.3931398984621449e-03
         - 7.4718994187311892e-03
         - -1.6224814283738044e-03
         - -1.3804465417923348e-03
         - 1.9544546833373581e-03
         - 6.3637553816225554e-04
         - 3.4341063212631651e-04
         - -3.1284219452359261e-03
         - -3.0860459253368349e-03
         - 4.0017867187190168e-03
         - -1.9228514371308550e-05
         - 5.2277233505701242e-04
         - -4.7440697879624193e-03
         - -4.0707352604973804e-03
         - -7.0096344040648350e-04
         - -6.5608039607295424e-03
         - 1.8814679030226913e-03
         - -7.3283671730774618e-03
         - -2.6256118897215889e-03
         - 2.1593033287076501e-03
         - 5.5432912238983154e-03
         - 3.4495292088824276e-03
         - -4.9430117269440288e-04
         - -7.9870962781529633e-03
         - -5.5907777460435740e-03
         - 3.4183224070086248e-03
         - 6.8586039179529201e-04
         - 4.6511666297099899e-03
         - -7.3636364196999031e-03
         - -2.6286157512502738e-04
         - -6.7042769920388707e-03
         - -4.5717752537089949e-03
         - -2.6011640781038275e-04
         - -2.5883432513544536e-03
         - 3.5567006273379441e-03
         - 7.1757457075981874e-03
         - 1.0158447327066969e-03
         - -1.4617138272364951e-03
         - 2.6006841477439345e-03
         - -7.3050202490521261e-04
         - 6.2329543380986916e-04
         - -7.6510803676986495e-03
         - 1.6824724511826715e-03
         - 4.8636406901289347e-03
         - 3.8924442538188081e-03
         - -3.9019430786717503e-03
         - 3.7431853129716542e-03
         - -6.2374503288086334e-03
         - -2.9403670413349395e-03
         - 6.1174740339895511e-03
         - -2.8312444840076691e-03
         - -3.9688950431621406e-03
         - 3.5598097621820403e-03
         - 4.4631578813628487e-03
         - 6.2515001019528178e-03
         - 5.3300630085615806e-03
         - -6.2631245224465948e-03
         - 7.3653068868892342e-03
         - -2.8884477640527075e-03
         - -5.4677799281658218e-03
         - -4.7225028011163390e-03
         - -7.0907039778987154e-03
         - -7.1847422840426644e-03
         - 1.5027376075900610e-03
         - 4.3392887858442570e-03
         - -3.8217957304397987e-03
         - -5.2001895270644685e-03
         - -5.3398193622710057e-03
         - -4.9966086968642881e-03
         - -6.2512389980775018e-03
         - 6.5990290183859926e-03
         - 3.7353282189133744e-03
         - 4.1124642814054507e-03
         - -2.7974930029339602e-03
         - -3.6179581076228233e-04
         - 7.2567377640698353e-03
         - 6.2420026121402759e-03
         - -2.9329502850677655e-03
         - -6.4684804170573856e-03
         - -4.5124619130034928e-03
         - -4.7438811403318478e-03
         - 2.2209086283824014e-03
         - 1.9453925526497864e-03
         - -4.4454312688218672e-03
         - 6.8687871020516721e-03
         - -7.8542556832448124e-03
         - -2.5504013642380901e-03
         - 2.8738365380147576e-03
         - -2.1486771360418730e-03
         - -6.0822493323322846e-03
         - -7.3925171224120557e-03
         - 3.6100959022039593e-03
         - -3.8311876594036534e-03
         - -2.6463428176773012e-03
         - -6.3059459467687158e-03
         - 2.3215656952205058e-04
         - -6.3387117406502594e-03
         - -8.2077289125511268e-04
         - -1.2194799533620374e-03
         - 1.1689933243525152e-03
         - -1.1921098189642361e-03
         - -8.6019991254215715e-04
         - -6.4435774400023096e-03
         - -4.3429092182700009e-03
         - 4.2228589557087373e-03
         - 5.3438729538748970e-03
         - -4.1139340133203138e-04
         - 2.0013303324135697e-03
         - 4.5446071109514659e-03
         - 6.9835474651074661e-03
         - 3.3993847686951215e-03
         - -3.4299243628382528e-04
         - -2.6014021435248448e-03
         - -7.2914666700636547e-04
         - 3.2998405046753046e-03
         - 1.7197318440193257e-03
         - -3.7644193589237503e-03
         - -5.4870356791397118e-03
         - -5.7525675372212971e-03
         - 5.4901809457796663e-03
         - -7.4184146853417503e-03
         - 2.7022238017772949e-03
         - -3.4037477287598168e-03
         - 5.8029976994941699e-03
         - 1.2400744028452280e-03
         - 7.2144964639265976e-03
         - -7.6905198373301859e-03
         - 4.5555109102427827e-03
         - 3.8163049255100119e-03
         - 4.8256132367608369e-03
         - 5.3350749653715830e-04
         - -3.4674057839086513e-03
         - 3.9305914809525310e-03
         - 1.9377264985326337e-03
         - 4.4063792029081011e-03
         - 2.5432942753068049e-03
         - 4.1472575972131163e-03
         - -1.8507306990260687e-03
         - -2.2595495050828436e-03
         - -4.9749273481403426e-03
         - -3.8670090283139235e-03
         - -2.5720784946391771e-03
         - -5.1635064315406747e-03
         - -5.1441907232414085e-03
         - 7.3946521600189328e-03
         - 1.9860407714986763e-03
         - -6.8606968021827919e-03
         - 4.7315881175001148e-03
         - -6.7637511345847567e-03
         - 3.9532705840397350e-03
         - 3.8868781459136183e-03
         - -1.2753613274173537e-03
         - -7.6124292490817409e-03
         - -6.1459765450346693e-03
         - 2.8243353508119419e-03
         - -4.4173943674581766e-03
         - -1.6266709998414034e-03
         - 5.0874209128389273e-03
         - 6.3864762482684504e-03
         - 6.5909628487005106e-03
         - 3.3465212902032936e-03
         - 5.9115071640775041e-03
         - 6.8565670838184852e-03
         - 1.3419287236653615e-04
         - 5.9242094984750127e-03
         - 7.3434636991812708e-03
         - -2.3731163332512671e-03
         - 4.2320040160878395e-03
         - 5.8026844706419098e-03
         - -1.0717198183828648e-03
         - 6.9845009387934937e-03
         - 2.4868709921005007e-03
         - 7.3345809392403273e-03
         - -7.2036789810867316e-03
         - -2.7060647549302028e-03
         - 1.0655205702470171e-03
         - 3.5706622990231479e-03
         - 4.0703676077358027e-03
         - -6.8499952751135441e-03
         - -4.4234496709517259e-03
         - 6.2473949027792210e-03
         - -4.3957850097423945e-03
         - -4.0009386435625369e-04
         - -2.4653287523405897e-03
         - 3.8446479637363359e-04
         - -7.9318753511728752e-03
         - 5.3104642964465643e-03
         - 5.1737215185758065e-03
         - 6.8183284477370343e-03
         - 4.8610878614581661e-03
         - -4.2791797424504008e-03
         - 6.6429112361889369e-03
         - 1.0997820749928857e-03
         - -6.9859460912960998e-03
         - -2.0777442974384401e-03
         - -6.6623337420296724e-03
         - -3.6141072261730617e-03
         - 4.9251510874769883e-03
         - 4.2131783653908675e-03
         - -4.9130950362483584e-04
         - -8.0373405575335163e-03
         - -9.6730057763096773e-04
         - -3.1251995274780790e-03
         - 1.4146723866716947e-03
         - 3.6847964014844249e-03
         - -4.8574463190142773e-03
         - 3.7552366729393626e-03
         - -6.2712488998279727e-03
         - -7.0181005835249690e-03
         - -4.4079234319159433e-03
         - 3.0595892420972898e-04
         - -9.4053317670875680e-04
         - 7.9144258335346034e-03
         - 3.1195475302860433e-05
         - -6.1839065176057919e-03
         - 2.7913822062760026e-03
         - -1.3967668406208525e-03
         - 4.9425595131622838e-05
         - 9.9124628701275047e-04
         - 7.6022123768605052e-03
         - 4.9261445108480639e-03
         - 9.3521299740210344e-04
         - -6.8981395280095113e-03
         - -5.5698363018729137e-03
         - -6.8253654818297164e-04
         - 5.9620237767164094e-03
         - -4.2277325785660472e-03
         - -3.1005471679874045e-05
         - 3.2089694188855954e-03
         - -3.5708556116955266e-03
         - 2.2570207897062624e-03
         - -5.2872809382236317e-03
         - 7.0906957335955005e-04
         - -1.9347536494115499e-03
         - -3.5197515463542585e-03
         - 4.2720576595109833e-03
         - -9.4957023909992655e-04
         - 6.4273066079063969e-03
         - -3.4620856407010302e-03
         - -6.4673839266858081e-03
         - -4.6510031677496093e-03
         - 2.8592858832323905e-03
         - -1.3696248417470556e-03
         - -4.7080430739319711e-03
         - -3.5593107747748597e-03
         - 2.0662384088514290e-03
         - -1.5664672163454329e-03
         - -2.7284517179356183e-03
         - 8.0863572227816219e-03
         - -1.6380192921283468e-03
         - -6.2193060590990338e-03
         - 2.1842550494345113e-04
         - 7.5205488219696436e-03
         - 4.6913016658802192e-03
         - 2.6043686918994771e-03
         - 6.5096096414127124e-03
         - -1.0693018103380178e-03
         - 5.2217203376748247e-03
         - 5.8361683961359948e-03
         - -3.8104231114291140e-04
         - -7.5669387665668686e-03
         - -3.8136641525988481e-03
         - -4.7641491975365371e-03
         - -6.4338193465204949e-03
         - 4.9861938222494047e-03
         - 1.0996935083403732e-03
         - -4.9001688007356929e-03
         - 4.7793692129261111e-03
         - -6.9922297011958947e-03
         - -3.1165203514044886e-03
         - 5.5085354063792169e-03
         - -3.2461556514151767e-03
         - -4.6110480883923069e-03
         - 4.2919872757014952e-03
         - -1.3316731915543989e-03
         - 3.3973541118554559e-03
         - -5.9517168577276226e-03
         - 5.8729094203082135e-03
         - 2.2183915545682812e-03
         - 7.8049462440179414e-03
         - 4.4671752566870183e-03
         - -5.7186264169001152e-03
         - 4.9788595924727128e-03
         - 6.5250967237758114e-04
         - 2.0098918546265785e-03
         - 2.4405193126241388e-03
         - 7.3095861458308709e-04
         - 4.2299320447324457e-03
         - -4.8219808353658816e-04
         - 1.9633314470756569e-03
         - 7.1860566528797222e-03
         - 6.5265094372802699e-03
         - 2.7380989601330269e-03
         - -2.0580708605419710e-03
         - 5.2203111165150537e-03
         - -3.8341911899759900e-03
         - 6.3610508253807629e-03
         - -4.2561492815422347e-03
         - -6.4276454268753710e-03
         - 7.2383115302728732e-03
         - 1.3094917855582507e-03
         - -5.1991859049806202e-03
         - 4.4977346498048928e-03
         - 5.5696138960577160e-03
         - 5.3528554221078991e-03
         - -5.6355825534874504e-03
         - -6.3007925199120424e-04
         - -1.0615116906961656e-03
         - -6.9831688411456450e-03
         - 1.1052813273841429e-03
         - -7.0589602811861434e-03
         - -7.5481874306908342e-03
         - -1.3702692308157263e-03
         - -8.8833461710171333e-04
         - 5.5447685351915407e-03
         - 3.2344891394579509e-03
         - -4.7475965016759948e-03
         - 3.3458914884048532e-03
         - -2.4271896205552172e-03
         - -5.2107867221298516e-04
         - 5.7459200524022178e-03
         - 2.2794736764398518e-03
         - 3.0474755104783705e-03
         - 2.1709235579503621e-03
         - 4.3564376114907013e-03
         - -5.9379821646578547e-03
         - 3.6251955843033218e-03
         - 3.3797524077477143e-03
         - -2.4876139158184563e-03
         - -2.8785666175254266e-03
         - -6.6768295332465749e-03
         - -4.4331994120757976e-03
         - -3.7872740050359024e-03
         - -8.4399079232945658e-03
         - -2.8874838074500219e-03
         - -7.9138100601976128e-03
         - -1.7688810881430054e-03
         - 2.0380936428972666e-03
         - 6.2291839293659073e-03
         - -5.3821575895533135e-03
         - -3.8392300336061841e-03
         - 5.7309275266591454e-03
         - -6.2474478922380627e-03
         - -1.3044802697818564e-03
         - 9.1954266407847131e-03
         - 1.1450075800634410e-03
         - 2.7197047409253283e-03
         - -3.6223322327219370e-03
         - -6.0000723827441057e-04
         - -2.1438211642906327e-04
         - -3.3678294470496765e-03
         - 4.2699544301783542e-03
         - -3.8477176477336068e-03
         - -6.6115232691009744e-03
         - -4.7047426658702110e-03
         - 7.1908685979498489e-03
         - 6.0932007738360326e-03
         - 2.1861287237295976e-04
         - -1.6971364729601291e-03
         - -2.6338210795874453e-03
         - 1.6962730544195287e-03
         - 1.4627651035507151e-03
         - 3.6322556698173826e-03
         - 3.1845167309795439e-03
         - -6.3315237278790881e-03
         - -4.1091554421421550e-04
         - -8.0289911834028095e-03
         - -9.5210954796273901e-04
         - 5.6853790723107069e-04
         - -2.2096677386095145e-03
         - -6.4983769698413385e-03
         - -2.4192019400084883e-03
         - -1.2890922624731854e-04
         - 5.1412172006017054e-04
         - -2.8745385416822501e-03
         - 2.7022076165095056e-03
         - -5.3352443356807109e-03
         - 4.6374536074890753e-03
         - 7.0747163220125911e-03
         - 2.4519385955732130e-03
         - 2.6706029060892056e-03
         - 3.6442787849550774e-03
         - 1.2848243894396333e-03
         - -5.5255044927631771e-03
         - -4.1973778063145372e-03
         - 1.3446145173160368e-03
         - -6.8957561726654586e-03
         - -1.3140124710257926e-03
         - -1.5644928923022865e-03
         - -4.4598302953101007e-03
         - -3.4963018606418966e-03
         - 6.5312599776713390e-03
         - -3.5469209319272972e-04
         - -8.1264710984468285e-03
         - -8.3146961732229688e-03
         - 6.0432592743174876e-03
         - 6.8630207011393480e-03
         - 2.3444126788186863e-03
         - -8.8814174869977867e-03
         - -4.7329852121184178e-03
         - -4.0299430040034740e-03
         - 5.0970344105075692e-03
         - 3.2153425714349548e-03
         - -6.0411254093729666e-04
         - -2.2916166907839268e-03
         - 1.0903079453536213e-03
         - -3.6300549378898853e-03
         - -8.0513930985830432e-03
         - 1.9499737389232282e-03
         - -9.2386394314255421e-04
         - 8.9715230250847521e-04
         - -4.2921727553749877e-03
         - -9.1150266512490807e-03
         - -6.8247372323715907e-03
         - 4.5840536119516038e-05
         - 1.4282317936072325e-03
         - -2.5931223152959194e-03
         - -6.7646953102587428e-04
         - 1.2076364273541683e-03
         - -2.9697558460310999e-03
         - -7.4920057863040448e-03
         - -4.8082494328875042e-03
         - -4.1456998099051647e-03
         - -2.0081811724513730e-03
         - -5.6855438498834938e-03
         - 1.0720681133504511e-02
         - -7.2046515466506738e-03
         - -2.8816824592458809e-03
         - -9.3378915765864566e-03
         - 6.7996727316404148e-04
         - 8.4831235482738694e-03
         - -8.5462778939664056e-04
         - 2.6405299445655117e-03
         - 1.1035314552683997e-04
         - -4.6563680865635516e-03
         - 3.2712687581809233e-03
         - -6.8588239459571286e-03
         - -3.2671205454111851e-03
         - -2.5993882673391356e-04
         - -1.5101053933423102e-03
         - 1.2847842621470150e-03
         - 3.4169002305530598e-03
         - 3.8229954177640933e-04
         - -4.4508198899442354e-03
         - 4.6703073151231032e-03
         - -6.1544986724255794e-04
         - -5.3944156998881132e-03
         - -3.2997287096399753e-03
         - 1.6994487819133044e-03
         - -8.8743900548508999e-04
         - -9.7646437587314440e-05
         - 3.6021660959241063e-03
         - 1.0080681113336409e-03
         - 8.5388607760928962e-05
         - -6.0348007211118515e-03
         - -3.8458237217566778e-03
         - 4.7947978996523040e-03
         - -2.0303988363953103e-03
         - 6.8920838671619848e-03
         - 4.5723495472956314e-03
         - 6.6287312289959512e-03
         - -2.7134775099398926e-03
         - 1.8963556147270481e-03
         - 2.2517472181843639e-03
         - -3.1138564108557575e-04
         - 5.0665671867444273e-04
         - -1.2685193335213582e-03
         - 5.0539180338197596e-03
         - -5.4541798708069673e-03
         - -6.8592592708641483e-03
         - 4.2825309692243888e-03
         - -6.0907378047146612e-04
         - -4.1708978251899355e-04
         - -1.1931090088539841e-03
         - 1.0220394774366891e-03
         - -2.0105691886700321e-03
         - 8.7421317996513280e-03
         - -1.8778961165321286e-03
         - 6.1925106710165219e-03
         - 1.1872652715312698e-03
         - -9.6091807947863890e-04
         - -2.2146727051992046e-03
         - 5.7138367486283641e-03
         - -5.9852430246813337e-03
         - -4.0244791781990146e-03
         - 2.7437893699588313e-03
         - 6.3817678031051874e-03
         - 7.6150160975866511e-03
         - 1.9412448906266355e-03
         - -1.1383405067536400e-03
         - -3.0144352391506393e-04
         - 4.6007931061443500e-03
         - 5.7648593108535475e-03
         - -1.0070455642341152e-03
         - -6.8462209620102172e-04
         - 3.2656107775165164e-03
         - -3.1202409844558097e-03
         - -3.2055721438201245e-03
         - 4.5617445333428330e-03
         - -4.9769491951566335e-03
         - -4.8277992154835483e-03
         - -1.7076230038081941e-03
         - -3.7487745512611954e-04
         - -2.9650801961545658e-03
         - 1.2271528419780206e-04
         - -8.4930268183006502e-03
         - -1.3561649679801569e-03
         - 2.8122672771434638e-03
         - -6.4316645315255772e-03
         - -1.8838765716958142e-03
         - 8.3882869265559056e-04
         - -3.8224083841284402e-03
         - 6.6437009155668617e-03
         - -6.3363972385415621e-03
         - 2.4458038144656259e-05
         - 5.6612790461768776e-04
         - 3.2674579719127743e-03
         - 2.6207071507566835e-03
         - 4.1198257756242971e-03
         - -5.0645790475688053e-03
         - -1.8256444869791948e-03
         - 4.3775826231922691e-03
         - -6.5708392187942737e-03
         - -2.8780315591370961e-03
         - -4.0857589840205755e-04
         - 8.3969561606430710e-04
         - 7.0066719285974419e-03
         - -9.3096888704342334e-03
         - 1.8410889756734496e-03
         - 2.2614103815515106e-03
         - 1.2025558468366534e-03
         - -5.4989068059501673e-03
         - 3.1531208161991489e-05
         - 8.0101292992128658e-03
         - 2.6243111091370547e-03
         - 4.5314176446100522e-03
         - 8.3725361865332013e-04
         - 6.6964900306229159e-03
         - -8.0947160442940461e-04
         - 5.1278396539526016e-03
         - -5.2128678719102301e-03
         - -6.2726543027400517e-03
         - -1.8152841851518350e-03
         - -5.1006168669662988e-03
         - 7.2584879022779625e-03
         - 4.0193531485054751e-03
         - -4.4993314970059227e-04
         - 2.9893148365688531e-03
         - 4.8567514999724726e-03
         - -1.4340726390151071e-02
         - -1.1484964481564363e-02
         - -1.2726652954668436e-03
         - 7.2933185354292851e-03
         - 1.4880092660405756e-03
         - 1.4171089895902889e-03
         - -2.7353654816491412e-03
         - 3.0824179195815698e-03
         - 3.2480310831892538e-03
         - 1.8967464557748317e-03
         - -4.9346770196843064e-03
         - 3.7131947264356269e-03
         - -3.4968788620605516e-03
         - -5.7661301003320295e-03
         - 2.6327090878984025e-03
         - -2.6715937026225555e-03
         - 1.0823327743186222e-02
         - -1.8096328415883583e-03
         - 8.3367402063465636e-03
         - -9.6870292856518596e-03
         - -4.1560579920318624e-03
         - -7.7882937287067069e-03
         - 1.6773950636984006e-03
         - -4.1010832946822371e-03
         - 3.1799063160237260e-03
         - -9.7917606689227107e-03
         - -6.2049030036417962e-04
         - -3.2927306399229339e-04
         - 1.3019977583008536e-03
         - 1.9018149992501316e-03
         - -3.6762635871705404e-03
         - 2.4032133268971734e-03
         - -3.3446678721935647e-03
         - 2.5319360723690234e-03
         - -4.4057029641664108e-03
         - 8.4959339103926233e-04
         - -6.3267154776027578e-03
         - -5.2173495787717402e-03
         - -1.2498697723459075e-03
         - -4.6822636009031665e-03
         - -7.2416684695236332e-04
         - -6.2535248506223858e-03
         - 1.5351875483029980e-03
         - -1.6287393123768217e-04
         - -5.4544313661090199e-03
         - 2.6957946802698132e-03
         - -1.0795519619132199e-03
         - -1.6614047698804793e-03
         - 5.0212412238361164e-03
         - 9.6910774780891221e-04
         - -5.3791910073954985e-03
         - 9.2899226889089446e-03
         - -3.2440315806182103e-03
         - 5.6761027124365728e-04
         - 3.9402890322051097e-03
         - -3.1717247884516710e-03
         - -2.6622196630171277e-03
         - -1.2296874383642645e-02
         - -2.8884020962166335e-04
         - -1.3759988346833485e-02
         - 4.2689701184207574e-04
         - 1.5363185268311445e-03
         - 2.0132080841062966e-05
         - -2.4622890045227154e-03
         - -6.6517279545131149e-03
         - 3.1378633235962716e-03
         - -8.4254599754527738e-03
         - 2.5085656720670868e-03
         - 4.3875978117375843e-03
         - 7.9773323620663996e-03
         - -1.8577149457354975e-04
         - 1.0081562184572424e-02
         - 4.4005045522230238e-03
         - -1.7309556016401951e-03
         - -1.3648690201738308e-03
         - 1.4580629667788076e-03
         - -8.3329923898695195e-03
         - -5.9187427922539903e-04
         - -1.2157874720979903e-03
         - 7.5826302926082164e-04
         - 6.5330719690277969e-03
         - -5.5969101764131628e-03
         - -3.1172309701172265e-03
         - 3.8120612020729255e-03
         - 4.3108631013340712e-03
         - -2.3894628282266632e-03
         - 2.6916344244474976e-03
         - -4.6327548614029154e-03
         - -4.0362705343219380e-03
         - 4.6878676940368558e-03
         - 1.9247033531708769e-03
         - 3.6112062299458016e-03
         - 4.0420270212559841e-03
         - -5.9606396665888399e-03
         - -1.9174729871962164e-03
         - 3.2230138761551101e-03
         - 1.6817088923435522e-03
         - -2.0495095652420924e-03
         - 6.2933220713544012e-03
         - 1.0659557245844436e-03
         - 9.1955702024727900e-04
         - -5.0764273906089277e-03
         - 3.6525319443167898e-03
         - -5.9452239370773674e-03
         - 1.6292714704794415e-03
         - -2.8761632574402394e-03
         - -2.8112267699791334e-03
         - -5.8850935465864433e-04
         - -2.8904471241000076e-03
         - 5.2162678387779890e-03
         - 1.7616770980830711e-03
         - -4.9142872524750043e-03
         - -3.5751860879669746e-03
         - 2.0472087536787310e-03
         - 3.9363332881991678e-03
         - 5.1658117964879487e-03
         - -7.5023022373284396e-03
         - -4.8695148833563360e-05
         - -2.0220033645222991e-03
         - -1.0711953622879980e-03
         - 5.4117725984807186e-03
         - -5.5414750750871402e-03
         - -3.2043371399661739e-03
         - -5.7029575884282790e-03
         - -5.6135794555210190e-03
         - -7.6132511319089817e-03
         - 3.7662537878406779e-03
         - -2.4787830915898221e-03
         - -3.0936046708510321e-03
         - -3.9992484899682565e-03
         - -1.7549105366353485e-03
         - 5.9961483860006912e-03
         - -4.1497422636815329e-03
         - -5.7253269508498877e-03
         - -4.1320452635802201e-03
         - 4.8661644793168944e-03
         - -1.6013560602098308e-03
         - 3.8832810852490783e-03
         - -8.9329161313477900e-04
         - 7.9906604402301708e-04
         - -7.5603070433660890e-03
         - -1.8626909022094542e-03
         - 5.1124198761458954e-03
         - -5.9773171233332785e-04
         - -8.0140599159320251e-03
         - 6.7487491245533859e-03
         - 3.7700061290650956e-03
         - -4.1129333638591789e-03
         - -6.7298386216989442e-03
         - 1.7332424144977448e-03
         - -9.0116180094382259e-04
         - 1.2543529747473842e-03
         - -7.4897504631927080e-03
         - -2.4642629031244980e-03
         - -5.5837921885307984e-03
         - -7.7598474095073519e-03
         - 2.8461225806224242e-04
         - -8.7233770965066612e-03
         - -3.5110233467331594e-03
         - 1.0691729214828993e-03
         - 8.4476834309295101e-03
         - -3.0072630662845720e-05
         - 7.1100983711552589e-03
         - 4.0861731454605666e-03
         - -1.1555723166897615e-03
         - 1.4269969555185777e-03
         - 6.2682065883704098e-03
         - -7.6558282129200452e-03
         - -8.0481546309958477e-03
         - 2.3545740298201987e-03
         - -2.7161017980531959e-03
         - 1.2581981725973829e-03
         - -4.0593562011508721e-03
         - 3.8746248340696633e-03
         - 6.1024080955278679e-03
         - 6.4400551530789255e-03
         - 2.8036054539979614e-03
         - 5.6259933298282577e-03
         - -7.3032189418152545e-03
         - 1.2584064616075980e-03
         - 6.3842819154659889e-03
         - 3.9617992080588686e-04
         - 1.7655755510847570e-03
         - 8.4771860589849760e-03
         - 3.0584635889591514e-03
         - 1.9438493600927901e-03
         - 5.8975542249893147e-03
         - -2.5110617730965357e-05
         - -9.6408350329612504e-03
         - -5.4514045747534976e-04
         - 8.9472087630044720e-03
         - -4.0122462750992322e-03
         - -3.8479972901963541e-03
         - -4.9379351514315288e-03
         - 1.3536012000100012e-03
         - 9.1633970794964916e-04
         - -5.2958110290245467e-04
         - -3.7405709547287565e-03
         - 1.4703948389079415e-04
         - 7.1743561403686939e-03
         - -5.4550077178859308e-03
         - 7.8847694998918373e-05
         - 6.2631328078680583e-03
         - -4.5492933858681025e-03
         - 4.0577651200249800e-03
         - -2.1411578630525455e-03
         - 7.6168594747038900e-03
         - -2.4151739031425777e-03
         - 1.7914049078366853e-04
         - 7.4344928243780502e-03
         - -2.0766800236297504e-04
         - 2.8175279037182168e-03
         - -6.2410712982711196e-03
         - 6.6017327829875176e-03
         - 3.1548697026882078e-03
         - -1.4572408088414091e-03
         - 1.0338887139231771e-05
         - -4.1307390607396420e-04
         - 4.3422150203978093e-03
         - -1.0837372183603479e-02
         - -1.3518557182458688e-04
         - -2.2415828056944948e-03
         - -2.7359376367521830e-03
         - -6.2174446619115750e-03
         - 5.2614338746849595e-04
         - -7.2649155927183157e-03
         - 6.0703714269754296e-04
         - 3.2707247160366688e-03
         - 8.1473169110429181e-03
         - 9.3706583531393117e-03
         - 5.1780813162371347e-03
         - 4.7353085834847923e-03
         - -7.5887636784626230e-03
         - 1.0141902678285864e-03
         - 1.8061729336034040e-03
         - -1.9291965223107986e-04
         - -6.4248572396990809e-03
         - 4.2375847866481468e-03
         - 1.2139151185476581e-02
         - 6.1409560904570797e-03
         - -9.7477375512815506e-04
         - -4.5351658419830005e-03
         - 1.6945464166448669e-03
         - 3.4167552428566654e-03
         - -1.9506896527445702e-03
         - 3.7582228564632448e-03
         - -1.9239328300989773e-03
         - -4.6553766467269794e-03
         - -3.9623399230874004e-03
         - -4.9131997153367976e-03
         - -6.8000736503667572e-03
         - 7.2875892068119744e-03
         - 4.3602205202906731e-03
         - -3.2749285460886260e-03
         - 8.6900867630341824e-03
         - -6.7286644101405930e-03
         - -4.0775897203341729e-03
         - -1.3739427995183585e-02
         - 7.0886561531968463e-03
         - -6.2937653314473901e-03
         - 2.9860292734071032e-03
         - -4.8183340285628297e-03
         - 2.7280233390315723e-03
         - 3.4859406217204137e-03
         - -9.7242693050373936e-03
         - 3.0811119621941309e-03
         - -3.9487659977018056e-03
         - -2.3710368501200087e-03
         - -1.7328415919065027e-03
         - 6.9948846367400954e-03
         - -3.6939008101293681e-03
         - 2.5032525158107154e-03
         - 1.9214708653797832e-03
         - 4.2854542549971703e-03
         - -4.2553044588466366e-03
         - -4.3830180690731541e-03
         - 5.6608091309186606e-03
         - -9.3913609135605289e-03
         - -1.0219787432112931e-03
         - -2.1196186206384471e-03
         - 4.2336092800061911e-03
         - -4.1385986524941458e-03
         - -3.7467579066673405e-03
         - -1.9195963665335257e-03
         - -2.4802176506965408e-03
         - 1.2952176128774489e-03
         - -2.3954884188113670e-03
         - 6.1317404651679945e-03
         - -1.6505595586280906e-03
         - 5.7254558973028223e-03
         - 1.8690075658820487e-03
         - 6.9371229090066447e-03
         - -1.6370434312316968e-03
         - -3.4639573105398483e-03
         - -9.0146211294577351e-04
         - -4.0942407913862220e-03
         - -8.7741632793363663e-03
         - -8.2397342284809788e-04
         - -3.0295208031318119e-03
         - -2.6272120080347099e-03
         - 2.4326981953148824e-03
         - 8.3981895715116335e-03
         - 1.6045105431191050e-04
         - -3.2432410695832792e-03
         - 7.2724512027238380e-04
         - 5.5705891425658844e-03
         - 3.0721838795018863e-03
         - 8.2856812969018326e-03
         - 4.6948398561368320e-04
         - 3.6005614733878857e-03
         - -6.1492569303946089e-04
         - -5.3015450804457485e-03
         - -7.1509265903723553e-03
         - 4.2229216570945612e-03
         - 4.3804478206756828e-03
         - 5.3684871073078483e-03
         - 1.0287600333628195e-03
         - -4.1393332787475930e-03
         - 3.3775616570313528e-04
         - 2.5674836742390957e-03
         - 2.9727719876368577e-04
         - 5.0476628536094388e-03
         - 3.7646900010978525e-03
         - -5.1573590412941463e-03
         - -9.2288152607165246e-04
         - -3.2826638482652830e-03
         - 4.5166040847270210e-03
         - 4.5078860562887315e-03
         - 4.5889928226476237e-03
         - 7.3867972591526157e-03
         - 4.7728009369513574e-03
         - -2.5985111076597938e-03
         - -2.1506953976015231e-03
         - 2.9945631547371302e-03
         - 5.0306483913764438e-03
         - -1.6143386635703198e-04
         - 6.5963222205627703e-03
         - -1.2439342791056415e-03
         - -6.0797962554762861e-03
         - 5.1504814505163466e-03
         - -6.6284314889660783e-03
         - -1.5093853130861662e-03
         - 8.6986543210517877e-03
         - -4.2299555805059849e-03
         - -4.0193956163791563e-03
         - 1.6732076492667297e-03
         - -6.1160075040307584e-04
         - 1.5396547544357898e-03
         - 4.1502830637800180e-03
         - 2.0725112713994238e-04
         - 7.8018753645322072e-03
         - -2.2083408676384845e-03
         - 1.9809775411220106e-03
         - 4.0327107315418810e-03
         - 2.9462007877077258e-03
         - -7.3940026978907532e-03
         - 2.0203755789494978e-03
         - 6.4075232706805900e-03
         - 4.6027150697284620e-03
         - -2.0442839500573696e-04
         - -5.7491488463334650e-03
         - -4.0544837777426171e-03
         - -6.2970989937981437e-03
         - 1.0566903839205868e-03
         - -6.4727215396851532e-03
         - -9.1640964570481061e-05
         - 5.0283912715620143e-03
         - 8.3393361151870762e-03
         - 3.7933854850820604e-04
         - 1.2040131245129144e-03
         - 6.1497421960528056e-03
         - 2.4541128815157849e-03
         - -7.0914538510351652e-03
         - -6.2695457848374013e-03
         - 3.1228236304528803e-03
         - 7.3193041209344476e-04
         - -2.2386153238676586e-03
         - 2.8913076806874635e-03
         - 3.2413229346469454e-03
         - 4.4681736582503620e-03
         - -6.2857370322156733e-03
         - 7.2904525406175264e-04
         - 3.1833360209769203e-04
         - -1.8033774136945154e-03
         - 5.2295371040786166e-03
         - -4.9339085396401215e-03
         - -3.7002632412754975e-03
         - -2.0372946198820279e-03
         - 3.3985069581842411e-03
         - -3.3613386711872592e-03
         - -5.3595732677772937e-03
         - -5.8103290752680879e-05
         - 4.5809743183334323e-03
         - 3.9139193497405855e-03
         - -4.7595182795584076e-03
         - -4.4669028869213723e-03
         - -6.8844460669594352e-03
         - -3.0308526427659977e-03
         - 3.0923650210601047e-03
         - -9.7195580791415489e-03
         - 9.4082573151668819e-03
         - 2.1085974042309419e-03
         - 3.7140806117346376e-03
         - -3.3546641142704107e-03
         - -1.1114245898299257e-03
         - 4.2409624114077759e-03
         - -3.0102414174828372e-03
         - -3.6290658240260240e-03
         - -1.3995529124434577e-02
         - -6.2605501059505460e-04
         - -4.0042134640205463e-03
         - 4.0195844369088074e-03
         - -3.0124111187956919e-04
         - 4.0539162908458633e-03
         - -5.6477824545688848e-03
         - -7.7748597603525191e-03
         - -9.0139106021215453e-03
         - -4.2698907522402867e-03
         - -5.5837160986586653e-03
         - 7.2656038122532888e-03
         - 8.0358250530090589e-04
         - 2.7184636137684332e-03
         - -5.3895743810044340e-03
         - -2.2302575771682518e-03
         - -1.3853292029712312e-04
         - 4.3680189080756446e-03
         - -2.9487487646103088e-03
         - 3.4308423895252713e-03
         - -1.8597571471899914e-03
         - -1.1472879739188747e-02
         - -6.2692187559682585e-03
         - -3.2168009515169942e-03
         - 4.7133591482526544e-03
         - 2.6296378158501381e-03
         - -4.6695610861415176e-03
         - -6.8653577223277895e-03
         - 5.1065242080006916e-03
         - 2.1140040360946421e-03
         - -1.0119507072182838e-02
         - -2.1751835456678037e-03
         - 7.9639907656243424e-03
         - -4.1879162906876778e-03
         - -5.6587000788504878e-03
         - 4.3684775017952691e-05
         - 1.5595422828197207e-03
         - -3.9072408828011770e-03
         - 7.3837353713457595e-03
         - 1.4146626216571827e-03
         - 5.2773970144211950e-04
         - -3.5328684628261869e-03
         - 8.1117411264324847e-03
         - -1.2093712030136088e-02
         - 1.2812943291825273e-02
         - 2.6175473187952931e-03
         - -5.9638207410981020e-03
         - -6.4721107199579211e-03
         - 9.2714773284091265e-04
         - 3.2203563860754955e-03
         - -2.4942455409189819e-03
         - 1.9539055712115031e-03
         - -2.2357145658467516e-03
         - -1.2781024577234361e-03
         - -1.6508057667417172e-03
         - 5.9053811689233320e-04
         - 3.0350357696147046e-03
         - 5.3437712767008799e-03
         - 6.7208582531934000e-03
         - 1.0051628020830910e-02
         - -2.4057339931340604e-03
         - 4.3232853750506161e-03
         - 3.1613498633568859e-03
         - -4.2281746964105095e-03
         - 4.2280810447398642e-04
         - -3.6184947171472694e-03
         - 2.5426738160283834e-03
         - -7.7684555360134425e-03
         - -1.4845602605035426e-03
         - -4.7990555213521446e-03
         - -2.0286655136384549e-03
         - 3.2796117354176226e-03
         - 2.9536589110669906e-03
         - -4.4889221058920367e-03
         - -4.9855701976986013e-03
         - -5.8611537820576565e-03
         - -8.4400266709124035e-03
         - 9.4495871579543668e-04
         - 2.8111781959966561e-03
         - -2.8045646276540434e-04
         - -3.3753887555512427e-03
         - -4.9616976625626247e-03
         - 4.2705156069001785e-03
         - 2.3032033348077915e-03
         - -3.2341833769857078e-05
         - 4.3149421278540325e-03
         - 1.0242758868723393e-03
         - -4.5089872747564232e-03
         - 2.9467552698120843e-03
         - 2.8155777074877165e-03
         - 4.0949465623815687e-03
         - -3.3543548365910681e-03
         - 8.3599790585008760e-03
         - 1.2657786102430566e-03
         - -2.1563471278126436e-03
         - 9.0104794590689413e-04
         - -1.0747970040141557e-03
         - -3.6614816931667391e-03
         - -4.7857097382451802e-03
         - 3.0564338901760901e-04
         - -7.8310832412961454e-03
         - -2.2472793616357674e-03
         - -5.3788694911989423e-03
         - 2.6130979591922035e-03
         - 5.5574088774792080e-03
         - -8.3352254779019887e-03
         - 6.0526598038847896e-03
         - 6.4963702930026903e-03
         - -6.5938819475100030e-03
         - -8.5448672090907563e-03
         - -5.2060317096875577e-03
         - -1.5582659355281535e-04
         - 4.4284418505605025e-04
         - 3.5927939015298373e-03
         - 5.7153212535447301e-03
         - -4.1390684267990085e-03
         - -7.1420213969560359e-03
         - -2.8255768496598579e-03
         - 5.9495683830340495e-03
         - -6.5554188587779380e-03
         - 5.1714806495757153e-03
         - -6.6818193118706442e-03
         - -2.5014207588671404e-03
         - 3.2776783334346545e-03
         - 3.8460532131257327e-03
         - 3.4589788699467792e-03
         - -5.6840862153581433e-03
         - -3.3420234149213993e-03
         - 6.0694629679145665e-03
         - -9.4769249687039394e-03
         - -1.2004322819480143e-02
         - -2.3099511201923944e-03
         - 3.4700798214004434e-03
         - 2.8593186879892446e-03
         - -1.6175329569840914e-03
         - 1.7429877633150335e-03
         - -1.4430441021030162e-03
         - 2.1329029263324286e-03
         - -1.1912169503184048e-03
         - 3.3123514675688012e-03
         - -2.4235150830910746e-03
         - -7.5595615626223482e-03
         - 3.9313793239719392e-03
         - -1.9937595513289334e-03
         - 3.4533819201822824e-04
         - -3.1447917254338017e-03
         - 3.5759398530138750e-03
         - 5.2889138788643495e-03
         - -1.8740991002425221e-03
         - 7.2616068355319495e-03
         - 5.2440639733492824e-03
         - 5.6499815246849197e-03
         - 7.4422258197070776e-03
         - -5.0264137088910877e-03
         - -8.9431010727925064e-04
         - -9.3441436433217475e-03
         - -4.1429111929373475e-03
         - 1.1644842212911130e-03
         - -1.8275911318596601e-03
         - -8.2206963638556169e-04
         - 1.0772911471360305e-03
         - 9.5756744888691255e-04
